{"learner":{"attributes":{"scikit_learn":"{\"_estimator_type\": \"regressor\"}"},"feature_names":[],"feature_types":[],"gradient_booster":{"model":{"gbtree_model_param":{"num_parallel_tree":"1","num_trees":"100"},"iteration_indptr":[0,1,2,3,4,5,6,7,8,9,10,11,12,13,14,15,16,17,18,19,20,21,22,23,24,25,26,27,28,29,30,31,32,33,34,35,36,37,38,39,40,41,42,43,44,45,46,47,48,49,50,51,52,53,54,55,56,57,58,59,60,61,62,63,64,65,66,67,68,69,70,71,72,73,74,75,76,77,78,79,80,81,82,83,84,85,86,87,88,89,90,91,92,93,94,95,96,97,98,99,100],"tree_info":[0,0,0,0,0,0,0,0,0,0,0,0,0,0,0,0,0,0,0,0,0,0,0,0,0,0,0,0,0,0,0,0,0,0,0,0,0,0,0,0,0,0,0,0,0,0,0,0,0,0,0,0,0,0,0,0,0,0,0,0,0,0,0,0,0,0,0,0,0,0,0,0,0,0,0,0,0,0,0,0,0,0,0,0,0,0,0,0,0,0,0,0,0,0,0,0,0,0,0,0],"trees":[{"base_weights":[5.2626055E-2,-7.559313E-1,4.006694E-1,-3.8014362E0,-4.2423654E-1,1.596144E0,1.0589191E-2,1.7667327E0,-4.726673E0,-7.358853E-2,-3.4027004E0,3.4339985E-1,2.8457084E0,-9.495754E-2,4.910217E0,-2.8169405E0,7.2893864E-1,-1.1232839E-1,-6.5274024E0,-7.9660016E-1,1.5238287E0,-7.1533546E0,-9.717501E-1,-6.1001806E0,8.45412E-1,-1.059069E0,3.3911946E0,-2.6435852E-1,2.5657697E0,5.674535E0,-2.51296E-1,6.2039853E-3,-3.7972805E-1,5.1227194E-1,-2.0614302E-1,-7.945083E-1,1.6526356E-2,6.1363425E-2,-2.0142896E-1,2.4840279E-1,-2.775036E-1,-7.7846956E-1,5.2703954E-2,9.438395E-2,-5.4850745E-1,2.3220396E-1,-7.635075E-1,1.912673E-1,-1.9070958E-1,-3.4503287E-1,3.935264E-1,3.935872E-1,-2.2508183E-1,2.046539E-1,-4.209102E-2,6.237808E-1,2.5991628E-2,5.105598E-2,7.1726716E-1],"categories":[],"categories_nodes":[],"categories_segments":[],"categories_sizes":[],"default_left":[0,0,0,0,0,0,0,0,0,0,0,0,0,0,0,0,0,0,0,0,0,0,0,0,0,0,0,0,0,0,0,0,0,0,0,0,0,0,0,0,0,0,0,0,0,0,0,0,0,0,0,0,0,0,0,0,0,0,0],"id":0,"left_children":[1,3,5,7,9,11,13,15,17,19,21,23,25,27,29,31,-1,33,35,37,39,41,43,45,47,49,51,53,55,57,-1,-1,-1,-1,-1,-1,-1,-1,-1,-1,-1,-1,-1,-1,-1,-1,-1,-1,-1,-1,-1,-1,-1,-1,-1,-1,-1,-1,-1],"loss_changes":[3.5347617E2,3.8023456E2,4.094217E2,1.9897015E2,3.5693182E2,3.3714587E2,3.4332983E2,1.7241798E2,2.651607E2,3.5578394E2,3.212843E2,3.577455E2,2.3363165E2,2.936527E2,9.369125E1,1.15251045E1,0E0,1.1259655E2,2.1953839E2,3.6528827E2,4.0315887E2,7.19881E1,2.0402762E2,1.2114667E2,3.032873E2,1.807764E2,3.0080103E2,2.222676E2,3.2859872E2,9.691034E1,0E0,0E0,0E0,0E0,0E0,0E0,0E0,0E0,0E0,0E0,0E0,0E0,0E0,0E0,0E0,0E0,0E0,0E0,0E0,0E0,0E0,0E0,0E0,0E0,0E0,0E0,0E0,0E0,0E0],"parents":[2147483647,0,0,1,1,2,2,3,3,4,4,5,5,6,6,7,7,8,8,9,9,10,10,11,11,12,12,13,13,14,14,15,15,17,17,18,18,19,19,20,20,21,21,22,22,23,23,24,24,25,25,26,26,27,27,28,28,29,29],"right_children":[2,4,6,8,10,12,14,16,18,20,22,24,26,28,30,32,-1,34,36,38,40,42,44,46,48,50,52,54,56,58,-1,-1,-1,-1,-1,-1,-1,-1,-1,-1,-1,-1,-1,-1,-1,-1,-1,-1,-1,-1,-1,-1,-1,-1,-1,-1,-1,-1,-1],"split_conditions":[-5.9336215E-1,-1.3549463E0,-8.167997E-1,-1.6856757E0,1.3930848E0,1.5381181E-1,1.7054883E0,-8.916458E-1,-9.851118E-1,6.599023E-1,6.0484838E-2,-1.6785902E0,-1.4413853E0,1.5491238E0,1.375078E0,-7.372136E-1,7.2893864E-1,-1.2088977E0,1.1702148E0,-4.0909242E-2,1.25094E0,1.1138066E0,5.516347E-1,-8.2445663E-1,8.138742E-1,3.9708644E-1,1.5096078E0,-1.5497898E0,-3.814598E-1,-7.372136E-1,-2.51296E-1,6.2039853E-3,-3.7972805E-1,5.1227194E-1,-2.0614302E-1,-7.945083E-1,1.6526356E-2,6.1363425E-2,-2.0142896E-1,2.4840279E-1,-2.775036E-1,-7.7846956E-1,5.2703954E-2,9.438395E-2,-5.4850745E-1,2.3220396E-1,-7.635075E-1,1.912673E-1,-1.9070958E-1,-3.4503287E-1,3.935264E-1,3.935872E-1,-2.2508183E-1,2.046539E-1,-4.209102E-2,6.237808E-1,2.5991628E-2,5.105598E-2,7.1726716E-1],"split_indices":[7,8,3,7,1,9,10,13,13,3,8,3,10,3,7,0,0,12,4,12,10,9,10,2,10,12,0,4,4,0,0,0,0,0,0,0,0,0,0,0,0,0,0,0,0,0,0,0,0,0,0,0,0,0,0,0,0,0,0],"split_type":[0,0,0,0,0,0,0,0,0,0,0,0,0,0,0,0,0,0,0,0,0,0,0,0,0,0,0,0,0,0,0,0,0,0,0,0,0,0,0,0,0,0,0,0,0,0,0,0,0,0,0,0,0,0,0,0,0,0,0],"sum_hessian":[1.254E3,3.77E2,8.77E2,3.6E1,3.41E2,2.15E2,6.62E2,5E0,3.1E1,3.06E2,3.5E1,1.08E2,1.07E2,6.49E2,1.3E1,3E0,2E0,9E0,2.2E1,2.11E2,9.5E1,1.3E1,2.2E1,7E0,1.01E2,1.3E1,9.4E1,6.11E2,3.8E1,1.2E1,1E0,1E0,2E0,2E0,7E0,1.8E1,4E0,9.8E1,1.13E2,7.8E1,1.7E1,1.2E1,1E0,1.6E1,6E0,1E0,6E0,7.3E1,2.8E1,9E0,4E0,8.6E1,8E0,3.8E1,5.73E2,1.4E1,2.4E1,3E0,9E0],"tree_param":{"num_deleted":"0","num_feature":"20","num_nodes":"59","size_leaf_vector":"1"}},{"base_weights":[3.527435E-2,1.5874499E-1,-2.7909822E0,4.4083408E-1,-6.1616856E-1,-4.832654E0,2.1278161E-1,-2.183825E-1,9.376706E-1,-2.6054049E0,-6.467463E-2,-6.894025E-1,-6.772802E0,-6.1004634E0,1.9546396E0,-3.920666E-1,3.7140143E0,1.5666671E-2,2.1814322E0,5.938801E-1,-3.0837598E0,-2.7019691E0,4.3559292E-1,2.7015128E0,-3.9654174E0,-7.5242786E0,-1.6979568E0,-6.811226E-1,-1.6287065E-1,-2.101863E0,5.410028E0,-2.6683992E-2,-6.686839E-1,-4.185372E-1,5.858902E-1,1.849582E-1,-5.7327714E-2,5.968809E-1,1.8206413E-1,-4.098725E-2,-4.0030703E-1,3.3124927E-2,-6.82522E-1,-5.509544E-1,6.066377E-2,-7.535871E-3,4.1087887E-1,-5.343735E-1,1.4630857E-1,-1.7303964E-1,-8.140365E-1,-4.479186E-3,-3.328726E-1,2.2831304E-1,-3.6808795E-1,6.0680515E-1,1.8519555E-1],"categories":[],"categories_nodes":[],"categories_segments":[],"categories_sizes":[],"default_left":[0,0,0,0,0,0,0,0,0,0,0,0,0,0,0,0,0,0,0,0,0,0,0,0,0,0,0,0,0,0,0,0,0,0,0,0,0,0,0,0,0,0,0,0,0,0,0,0,0,0,0,0,0,0,0,0,0],"id":1,"left_children":[1,3,5,7,9,11,13,15,17,19,21,23,25,27,29,31,33,35,37,-1,39,41,43,45,47,49,51,-1,-1,53,55,-1,-1,-1,-1,-1,-1,-1,-1,-1,-1,-1,-1,-1,-1,-1,-1,-1,-1,-1,-1,-1,-1,-1,-1,-1,-1],"loss_changes":[4.3350208E2,2.6039923E2,3.1992868E2,2.8613226E2,3.4869397E2,2.4452502E2,2.5385329E2,2.582622E2,5.710488E2,3.0032803E2,3.3101514E2,1.329082E2,6.73103E1,4.7983093E0,2.6367337E2,2.8278238E2,2.9561432E2,3.1104132E2,2.788205E2,0E0,1.6059601E2,5.0252972E2,2.1790495E2,2.3756573E1,5.2711555E1,5.0165466E1,1.0634622E1,0E0,0E0,7.071972E1,1.2175171E1,0E0,0E0,0E0,0E0,0E0,0E0,0E0,0E0,0E0,0E0,0E0,0E0,0E0,0E0,0E0,0E0,0E0,0E0,0E0,0E0,0E0,0E0,0E0,0E0,0E0,0E0],"parents":[2147483647,0,0,1,1,2,2,3,3,4,4,5,5,6,6,7,7,8,8,9,9,10,10,11,11,12,12,13,13,14,14,15,15,16,16,17,17,18,18,20,20,21,21,22,22,23,23,24,24,25,25,26,26,29,29,30,30],"right_children":[2,4,6,8,10,12,14,16,18,20,22,24,26,28,30,32,34,36,38,-1,40,42,44,46,48,50,52,-1,-1,54,56,-1,-1,-1,-1,-1,-1,-1,-1,-1,-1,-1,-1,-1,-1,-1,-1,-1,-1,-1,-1,-1,-1,-1,-1,-1,-1],"split_conditions":[1.6016328E0,8.138742E-1,5.265414E-1,-2.9847196E-1,-1.014233E0,-9.518716E-1,-8.357792E-1,1.6249728E0,-3.0501422E-1,-1.5822995E0,9.362526E-1,-8.1340164E-2,1.016697E0,5.646897E-1,-6.813472E-1,1.6042361E0,-1.631128E0,2.1131226E-1,-1.3626789E-1,5.938801E-1,-9.234124E-1,8.6632204E-1,-1.6526512E0,-8.209275E-1,6.019635E-1,-1.4930371E0,1.6248049E0,-6.811226E-1,-1.6287065E-1,-1.5575912E0,8.9927363E-1,-2.6683992E-2,-6.686839E-1,-4.185372E-1,5.858902E-1,1.849582E-1,-5.7327714E-2,5.968809E-1,1.8206413E-1,-4.098725E-2,-4.0030703E-1,3.3124927E-2,-6.82522E-1,-5.509544E-1,6.066377E-2,-7.535871E-3,4.1087887E-1,-5.343735E-1,1.4630857E-1,-1.7303964E-1,-8.140365E-1,-4.479186E-3,-3.328726E-1,2.2831304E-1,-3.6808795E-1,6.0680515E-1,1.8519555E-1],"split_indices":[1,10,8,1,12,10,6,6,10,6,10,7,6,4,13,6,8,1,1,0,8,10,4,7,6,8,1,0,0,13,4,0,0,0,0,0,0,0,0,0,0,0,0,0,0,0,0,0,0,0,0,0,0,0,0,0,0],"split_type":[0,0,0,0,0,0,0,0,0,0,0,0,0,0,0,0,0,0,0,0,0,0,0,0,0,0,0,0,0,0,0,0,0,0,0,0,0,0,0,0,0,0,0,0,0,0,0,0,0,0,0,0,0,0,0,0,0],"sum_hessian":[1.24E3,1.189E3,5.1E1,8.72E2,3.17E2,3E1,2.1E1,3.75E2,4.97E2,6.8E1,2.49E2,1E1,2E1,4E0,1.7E1,3.6E2,1.5E1,2.86E2,2.11E2,3E0,6.5E1,3.9E1,2.1E2,5E0,5E0,1.7E1,3E0,3E0,1E0,8E0,9E0,3.54E2,6E0,3E0,1.2E1,6.9E1,2.17E2,1.7E1,1.94E2,1.7E1,4.8E1,2.3E1,1.6E1,5E0,2.05E2,2E0,3E0,4E0,1E0,2E0,1.5E1,2E0,1E0,2E0,6E0,7E0,2E0],"tree_param":{"num_deleted":"0","num_feature":"20","num_nodes":"57","size_leaf_vector":"1"}},{"base_weights":[-1.5657604E-1,-8.5064316E-1,1.6350535E-1,-1.4373227E0,8.142035E-1,5.267208E-1,-6.1910224E-1,-1.163293E0,-5.051156E0,1.943111E0,-2.3936174E0,3.1130132E-1,2.6956427E0,-2.6854513E0,-1.0921525E-1,-9.572405E-1,-5.1473083E0,-1.7640578E0,-7.09555E0,2.3789482E0,-6.4966995E-1,4.136505E0,-3.7091389E0,1.8301606E-2,2.1585732E0,5.874006E0,9.840377E-1,-5.257777E0,-1.6272373E0,-5.9485334E-1,3.4625578E0,-6.4035274E-2,-3.0888322E-1,7.550249E-2,-6.289098E-1,-2.9641163E-1,1.6240983E-1,-7.562593E-1,-9.790387E-2,5.662515E-1,1.5731335E-1,-3.2585725E-1,6.799918E-1,-4.8192412E-1,2.768656E-1,3.4149894E-1,-1.213301E-2,-4.8589446E-2,3.6638352E-1,-2.0686786E-5,8.1333345E-1,-1.597669E-1,3.81159E-1,3.1360716E-1,-6.790375E-1,-2.3128171E-1,2.5289205E-1,3.972009E-2,-2.4797621E-1,-2.318125E-1,4.6189603E-1],"categories":[],"categories_nodes":[],"categories_segments":[],"categories_sizes":[],"default_left":[0,0,0,0,0,0,0,0,0,0,0,0,0,0,0,0,0,0,0,0,0,0,0,0,0,0,0,0,0,0,0,0,0,0,0,0,0,0,0,0,0,0,0,0,0,0,0,0,0,0,0,0,0,0,0,0,0,0,0,0,0],"id":2,"left_children":[1,3,5,7,9,11,13,15,17,19,21,23,25,27,29,31,33,35,37,39,-1,41,43,45,47,49,51,53,55,57,59,-1,-1,-1,-1,-1,-1,-1,-1,-1,-1,-1,-1,-1,-1,-1,-1,-1,-1,-1,-1,-1,-1,-1,-1,-1,-1,-1,-1,-1,-1],"loss_changes":[2.7383768E2,3.8111884E2,2.4023747E2,2.7932977E2,3.7402704E2,2.6875146E2,2.820727E2,2.1589929E2,1.2188547E2,2.9501254E2,2.4728682E2,2.8465805E2,2.7710507E2,1.3571411E2,3.7673096E2,1.7161923E2,9.235837E1,4.1407887E1,2.6876038E1,1.8424625E2,0E0,1.2063873E2,1.7873611E2,2.1621416E2,2.883846E2,2.3889362E2,2.6158655E2,2.1426096E2,1.1697466E2,3.5814194E2,1.8451202E2,0E0,0E0,0E0,0E0,0E0,0E0,0E0,0E0,0E0,0E0,0E0,0E0,0E0,0E0,0E0,0E0,0E0,0E0,0E0,0E0,0E0,0E0,0E0,0E0,0E0,0E0,0E0,0E0,0E0,0E0],"parents":[2147483647,0,0,1,1,2,2,3,3,4,4,5,5,6,6,7,7,8,8,9,9,10,10,11,11,12,12,13,13,14,14,15,15,16,16,17,17,18,18,19,19,21,21,22,22,23,23,24,24,25,25,26,26,27,27,28,28,29,29,30,30],"right_children":[2,4,6,8,10,12,14,16,18,20,22,24,26,28,30,32,34,36,38,40,-1,42,44,46,48,50,52,54,56,58,60,-1,-1,-1,-1,-1,-1,-1,-1,-1,-1,-1,-1,-1,-1,-1,-1,-1,-1,-1,-1,-1,-1,-1,-1,-1,-1,-1,-1,-1,-1],"split_conditions":[-5.819839E-1,7.719122E-1,6.873333E-1,-6.6163176E-1,8.6632204E-1,1.4190763E0,-1.014233E0,1.5481447E0,-8.2365745E-1,1.6824403E0,-1.4522287E0,3.833064E-1,-1.8959031E-3,3.396557E-1,1.3367754E0,1.288351E0,-9.807275E-1,-1.0065308E0,1.0236658E0,-9.1004604E-1,-6.4966995E-1,-4.78753E-1,1.078413E0,-5.137143E-1,-5.6092393E-1,-6.3163847E-1,1.2430805E0,-5.02336E-1,1.027347E0,9.7683865E-1,-1.199594E0,-6.4035274E-2,-3.0888322E-1,7.550249E-2,-6.289098E-1,-2.9641163E-1,1.6240983E-1,-7.562593E-1,-9.790387E-2,5.662515E-1,1.5731335E-1,-3.2585725E-1,6.799918E-1,-4.8192412E-1,2.768656E-1,3.4149894E-1,-1.213301E-2,-4.8589446E-2,3.6638352E-1,-2.0686786E-5,8.1333345E-1,-1.597669E-1,3.81159E-1,3.1360716E-1,-6.790375E-1,-2.3128171E-1,2.5289205E-1,3.972009E-2,-2.4797621E-1,-2.318125E-1,4.6189603E-1],"split_indices":[7,3,3,7,10,12,12,10,3,0,12,3,11,7,0,9,9,3,10,0,0,5,12,7,8,9,11,7,4,7,8,0,0,0,0,0,0,0,0,0,0,0,0,0,0,0,0,0,0,0,0,0,0,0,0,0,0,0,0,0,0],"split_type":[0,0,0,0,0,0,0,0,0,0,0,0,0,0,0,0,0,0,0,0,0,0,0,0,0,0,0,0,0,0,0,0,0,0,0,0,0,0,0,0,0,0,0,0,0,0,0,0,0,0,0,0,0,0,0,0,0,0,0,0,0],"sum_hessian":[1.231E3,3.88E2,8.43E2,2.87E2,1.01E2,5.76E2,2.67E2,2.68E2,1.9E1,7.5E1,2.6E1,5.25E2,5.1E1,5.2E1,2.15E2,2.56E2,1.2E1,8E0,1.1E1,7.2E1,3E0,4E0,2.2E1,4.54E2,7.1E1,1.7E1,3.4E1,1.4E1,3.8E1,1.9E2,2.5E1,2.24E2,3.2E1,2E0,1E1,6E0,2E0,1E1,1E0,1.3E1,5.9E1,1E0,3E0,1.9E1,3E0,1.7E1,4.37E2,2.6E1,4.5E1,5E0,1.2E1,1.8E1,1.6E1,2E0,1.2E1,3.3E1,5E0,1.25E2,6.5E1,4E0,2.1E1],"tree_param":{"num_deleted":"0","num_feature":"20","num_nodes":"61","size_leaf_vector":"1"}},{"base_weights":[1.3163766E-3,-7.559292E-1,3.383498E-1,-3.264444E0,-4.5906654E-1,-5.9626788E-2,9.69637E-1,5.6481236E-1,-3.8663228E0,-1.3181874E-1,-3.3006427E0,8.624317E-2,-5.515072E0,7.353858E-1,5.9648194E0,-2.2110121E0,-6.107643E0,-1.2535429E0,7.102067E-1,-4.10646E0,3.30258E-2,2.4635417E0,-1.3680825E-1,-6.008153E0,4.4749357E-2,1.8940444E0,-2.8687716E-1,7.3626274E-1,2.6410036E0,-3.1070554E-1,5.096977E-1,-7.2464913E-1,-3.0018148E-1,-2.8410116E-1,1.749506E-2,1.4882702E-1,-1.1822903E-1,-3.040843E-2,-5.302485E-1,1.9989218E-1,-2.4326006E-1,8.4133364E-2,7.4011546E-1,-4.8300916E-1,5.650168E-3,-3.335735E-1,-7.822264E-1,1.3967626E-1,5.518434E-1,4.5647413E-1,-5.1896192E-2,5.7029355E-1,-2.3219064E-1],"categories":[],"categories_nodes":[],"categories_segments":[],"categories_sizes":[],"default_left":[0,0,0,0,0,0,0,0,0,0,0,0,0,0,0,0,0,0,0,0,0,0,0,0,0,0,0,0,0,0,0,0,0,0,0,0,0,0,0,0,0,0,0,0,0,0,0,0,0,0,0,0,0],"id":3,"left_children":[1,3,5,7,9,11,13,-1,15,17,19,21,23,25,27,29,31,33,35,37,39,41,43,45,-1,47,49,-1,51,-1,-1,-1,-1,-1,-1,-1,-1,-1,-1,-1,-1,-1,-1,-1,-1,-1,-1,-1,-1,-1,-1,-1,-1],"loss_changes":[3.2233966E2,2.881836E2,2.1963937E2,2.4177304E2,3.2409988E2,4.2781247E2,3.9111664E2,0E0,1.3118915E2,2.9746964E2,9.6843414E1,2.7819318E2,4.384906E1,3.8430637E2,5.0246094E1,1.7299515E2,3.4840454E1,3.0663498E2,2.668065E2,1.3027194E2,4.36399E1,3.5421573E2,4.3575684E2,3.6931793E1,0E0,2.662483E2,1.9716463E2,0E0,1.0441824E2,0E0,0E0,0E0,0E0,0E0,0E0,0E0,0E0,0E0,0E0,0E0,0E0,0E0,0E0,0E0,0E0,0E0,0E0,0E0,0E0,0E0,0E0,0E0,0E0],"parents":[2147483647,0,0,1,1,2,2,3,3,4,4,5,5,6,6,8,8,9,9,10,10,11,11,12,12,13,13,14,14,15,15,16,16,17,17,18,18,19,19,20,20,21,21,22,22,23,23,25,25,26,26,28,28],"right_children":[2,4,6,8,10,12,14,-1,16,18,20,22,24,26,28,30,32,34,36,38,40,42,44,46,-1,48,50,-1,52,-1,-1,-1,-1,-1,-1,-1,-1,-1,-1,-1,-1,-1,-1,-1,-1,-1,-1,-1,-1,-1,-1,-1,-1],"split_conditions":[-5.819839E-1,-1.1398926E0,4.2856193E-1,-1.5391493E0,1.3930848E0,3.818289E-1,1.53998E0,5.6481236E-1,5.445551E-1,-5.0702006E-1,-7.640362E-1,-1.4588679E0,1.3835949E0,-4.5883935E-2,1.2430805E0,1.3571068E0,1.3992705E0,-2.2931919E-1,8.350821E-1,-1.0567673E0,6.556403E-2,7.8641593E-1,-1.3714547E0,-2.7004898E-1,4.4749357E-2,1.3704102E0,4.6361166E-1,7.3626274E-1,2.997809E-1,-3.1070554E-1,5.096977E-1,-7.2464913E-1,-3.0018148E-1,-2.8410116E-1,1.749506E-2,1.4882702E-1,-1.1822903E-1,-3.040843E-2,-5.302485E-1,1.9989218E-1,-2.4326006E-1,8.4133364E-2,7.4011546E-1,-4.8300916E-1,5.650168E-3,-3.335735E-1,-7.822264E-1,1.3967626E-1,5.518434E-1,4.5647413E-1,-5.1896192E-2,5.7029355E-1,-2.3219064E-1],"split_indices":[7,2,13,3,1,13,3,0,4,1,7,10,2,0,11,3,19,3,12,10,3,12,10,10,0,12,13,0,0,0,0,0,0,0,0,0,0,0,0,0,0,0,0,0,0,0,0,0,0,0,0,0,0],"split_type":[0,0,0,0,0,0,0,0,0,0,0,0,0,0,0,0,0,0,0,0,0,0,0,0,0,0,0,0,0,0,0,0,0,0,0,0,0,0,0,0,0,0,0,0,0,0,0,0,0,0,0,0,0],"sum_hessian":[1.261E3,3.88E2,8.73E2,4E1,3.48E2,5.36E2,3.37E2,2E0,3.8E1,3.13E2,3.5E1,5.23E2,1.3E1,3.23E2,1.4E1,2.3E1,1.5E1,1.34E2,1.79E2,2.8E1,7E0,4.4E1,4.79E2,1.2E1,1E0,1.51E2,1.72E2,9E0,5E0,2.1E1,2E0,1E1,5E0,6.3E1,7.1E1,1.27E2,5.2E1,7E0,2.1E1,4E0,3E0,3.4E1,1E1,1.8E1,4.61E2,6E0,6E0,1.34E2,1.7E1,7E0,1.65E2,3E0,2E0],"tree_param":{"num_deleted":"0","num_feature":"20","num_nodes":"53","size_leaf_vector":"1"}},{"base_weights":[-1.5064617E-2,-1.0988935E-1,2.3657453E0,-1.014008E-2,-2.013269E0,-5.386728E0,3.1929412E0,-7.787456E-1,2.428079E-1,-2.825078E0,2.328284E0,-9.510183E-2,-6.2579006E-1,3.8860004E0,-4.7091514E-1,-3.9030406E0,-4.0812755E-1,-6.6200775E-1,5.3297377E-1,-4.653254E0,4.9886355E-1,-5.6273557E-2,2.7120347E0,4.452732E0,-1.0850132E0,3.443864E-1,-4.5508146E-1,-9.9091604E-2,2.3335727E-1,-2.3925832E-1,2.972214E-2,3.742858E-2,3.32879E-1,-7.57029E-1,-1.4624977E-1,-3.7510154E-1,3.2905442E-1,6.1877586E-2,2.8963453E-1,4.7891298E-1,-9.561539E-2,-2.8080603E-1,2.9035875E-1],"categories":[],"categories_nodes":[],"categories_segments":[],"categories_sizes":[],"default_left":[0,0,0,0,0,0,0,0,0,0,0,0,0,0,0,0,0,0,0,0,0,0,0,0,0,0,0,0,0,0,0,0,0,0,0,0,0,0,0,0,0,0,0],"id":4,"left_children":[1,3,5,7,9,11,13,15,17,19,21,-1,-1,23,-1,25,27,29,31,33,35,-1,37,39,41,-1,-1,-1,-1,-1,-1,-1,-1,-1,-1,-1,-1,-1,-1,-1,-1,-1,-1],"loss_changes":[2.8291107E2,2.2876176E2,3.2501462E2,2.2299118E2,2.1804832E2,1.3369965E1,2.592709E2,3.2725635E2,2.2693053E2,3.1223566E2,1.26204605E1,0E0,0E0,1.2033777E2,0E0,1.5844641E2,4.0975934E2,3.4931497E2,2.889093E2,2.9607764E2,2.3776463E2,0E0,1.6800995E0,7.190198E1,4.251618E1,0E0,0E0,0E0,0E0,0E0,0E0,0E0,0E0,0E0,0E0,0E0,0E0,0E0,0E0,0E0,0E0,0E0,0E0],"parents":[2147483647,0,0,1,1,2,2,3,3,4,4,5,5,6,6,7,7,8,8,9,9,10,10,13,13,15,15,16,16,17,17,18,18,19,19,20,20,22,22,23,23,24,24],"right_children":[2,4,6,8,10,12,14,16,18,20,22,-1,-1,24,-1,26,28,30,32,34,36,-1,38,40,42,-1,-1,-1,-1,-1,-1,-1,-1,-1,-1,-1,-1,-1,-1,-1,-1,-1,-1],"split_conditions":[1.6249728E0,1.5552888E0,-1.6483893E0,-8.546002E-1,1.4216385E0,-7.52794E-1,1.3822519E0,-1.3376849E0,-4.78753E-1,7.336777E-1,-1.3714547E0,-9.510183E-2,-6.2579006E-1,1.3930848E0,-4.7091514E-1,-1.5034803E0,1.1757455E0,-1.8959031E-3,1.53998E0,-1.301279E-1,-2.7004898E-1,-5.6273557E-2,-1.4751437E0,1.5967455E0,1.5089447E0,3.443864E-1,-4.5508146E-1,-9.9091604E-2,2.3335727E-1,-2.3925832E-1,2.972214E-2,3.742858E-2,3.32879E-1,-7.57029E-1,-1.4624977E-1,-3.7510154E-1,3.2905442E-1,6.1877586E-2,2.8963453E-1,4.7891298E-1,-9.561539E-2,-2.8080603E-1,2.9035875E-1],"split_indices":[6,1,8,1,13,3,3,8,5,8,10,0,0,1,0,4,12,11,3,4,10,0,3,8,1,0,0,0,0,0,0,0,0,0,0,0,0,0,0,0,0,0,0],"split_type":[0,0,0,0,0,0,0,0,0,0,0,0,0,0,0,0,0,0,0,0,0,0,0,0,0,0,0,0,0,0,0,0,0,0,0,0,0,0,0,0,0,0,0],"sum_hessian":[1.251E3,1.204E3,4.7E1,1.145E3,5.9E1,4E0,4.3E1,2.83E2,8.62E2,5E1,9E0,1E0,3E0,4E1,3E0,2.9E1,2.54E2,2.09E2,6.53E2,3.2E1,1.8E1,1E0,8E0,3.6E1,4E0,2E0,2.7E1,2.1E2,4.4E1,7.4E1,1.35E2,6.19E2,3.4E1,1.6E1,1.6E1,7E0,1.1E1,1E0,7E0,3.4E1,2E0,3E0,1E0],"tree_param":{"num_deleted":"0","num_feature":"20","num_nodes":"43","size_leaf_vector":"1"}},{"base_weights":[-2.9893747E-2,1.1341226E0,-2.973649E-1,1.5328625E0,-1.6948612E0,1.2065834E0,-4.5158696E-1,1.7692523E0,-3.9430933E0,-3.484195E0,1.2794892E0,-7.605778E-1,2.329345E0,-8.114261E-1,2.2668242E-1,-3.3450518E0,1.9699968E0,-4.91495E0,-3.6106333E-1,-3.185367E-1,-5.3042846E0,-3.069415E-1,2.4562116E0,1.4533309E0,-3.3204365E0,3.71884E0,-1.2738007E0,-1.0371442E0,1.225843E0,-1.3871491E0,8.809017E-1,-4.4624838E-1,2.2384858E-1,2.2239946E-1,-2.4808724E-1,-5.2916986E-1,-1.327229E-1,-1.5496431E-1,1.00804806E-1,-2.7346054E-1,4.6197796E-1,-5.774747E-1,-6.459856E-3,4.0514976E-1,7.1743794E-2,-4.9471232E-1,2.8738302E-1,-6.321038E-1,-5.879119E-2,-4.6144435E-1,4.0131065E-1,-4.4983745E-1,2.4505924E-1,-8.4769174E-2,-3.396177E-1,5.5283993E-1,-2.8476045E-3,-3.133957E-1,9.8996274E-2,1.0461687E-1,-3.918663E-1],"categories":[],"categories_nodes":[],"categories_segments":[],"categories_sizes":[],"default_left":[0,0,0,0,0,0,0,0,0,0,0,0,0,0,0,0,0,0,0,0,0,0,0,0,0,0,0,0,0,0,0,0,0,0,0,0,0,0,0,0,0,0,0,0,0,0,0,0,0,0,0,0,0,0,0,0,0,0,0,0,0],"id":5,"left_children":[1,3,5,7,9,11,13,15,17,19,21,23,25,27,29,31,33,35,37,39,41,-1,43,45,47,49,51,53,55,57,59,-1,-1,-1,-1,-1,-1,-1,-1,-1,-1,-1,-1,-1,-1,-1,-1,-1,-1,-1,-1,-1,-1,-1,-1,-1,-1,-1,-1,-1,-1],"loss_changes":[3.9823077E2,2.721969E2,2.4176456E2,2.78813E2,1.6412115E2,2.1601099E2,2.30584E2,2.1397675E2,2.9556366E1,1.0778424E2,6.894857E1,2.0884827E2,3.1514334E2,2.8499786E2,3.4752423E2,5.9902992E1,2.2596698E2,2.438385E0,6.444009E0,1.0808377E2,2.9207855E1,0E0,2.4831715E1,1.9605399E2,1.3567046E2,1.2886755E2,2.271961E2,2.4561115E2,3.3475766E2,3.9757648E2,1.8971066E2,0E0,0E0,0E0,0E0,0E0,0E0,0E0,0E0,0E0,0E0,0E0,0E0,0E0,0E0,0E0,0E0,0E0,0E0,0E0,0E0,0E0,0E0,0E0,0E0,0E0,0E0,0E0,0E0,0E0,0E0],"parents":[2147483647,0,0,1,1,2,2,3,3,4,4,5,5,6,6,7,7,8,8,9,9,10,10,11,11,12,12,13,13,14,14,15,15,16,16,17,17,18,18,19,19,20,20,22,22,23,23,24,24,25,25,26,26,27,27,28,28,29,29,30,30],"right_children":[2,4,6,8,10,12,14,16,18,20,22,24,26,28,30,32,34,36,38,40,42,-1,44,46,48,50,52,54,56,58,60,-1,-1,-1,-1,-1,-1,-1,-1,-1,-1,-1,-1,-1,-1,-1,-1,-1,-1,-1,-1,-1,-1,-1,-1,-1,-1,-1,-1,-1,-1],"split_conditions":[-1.0613928E0,1.3835949E0,-1.4107285E0,1.6824403E0,-8.23467E-2,-1.3559662E-1,6.4544576E-1,-1.5729325E0,7.609447E-1,-2.9579982E-1,-1.2021803E0,6.4544576E-1,1.2130941E0,1.4628956E0,-7.6312995E-1,1.2102393E0,1.6016328E0,1.3003967E0,-9.472882E-1,6.6539556E-2,1.9780592E0,-3.069415E-1,-1.0615033E0,-8.7162834E-1,1.2430805E0,-1.5620825E0,4.2856193E-1,1.2010788E0,-1.2557108E0,3.9668834E-1,1.6374401E0,-4.4624838E-1,2.2384858E-1,2.2239946E-1,-2.4808724E-1,-5.2916986E-1,-1.327229E-1,-1.5496431E-1,1.00804806E-1,-2.7346054E-1,4.6197796E-1,-5.774747E-1,-6.459856E-3,4.0514976E-1,7.1743794E-2,-4.9471232E-1,2.8738302E-1,-6.321038E-1,-5.879119E-2,-4.6144435E-1,4.0131065E-1,-4.4983745E-1,2.4505924E-1,-8.4769174E-2,-3.396177E-1,5.5283993E-1,-2.8476045E-3,-3.133957E-1,9.8996274E-2,1.0461687E-1,-3.918663E-1],"split_indices":[3,2,1,0,6,3,0,1,6,13,1,0,3,9,13,6,1,1,1,9,17,0,8,8,11,8,13,9,0,1,9,0,0,0,0,0,0,0,0,0,0,0,0,0,0,0,0,0,0,0,0,0,0,0,0,0,0,0,0,0,0],"split_type":[0,0,0,0,0,0,0,0,0,0,0,0,0,0,0,0,0,0,0,0,0,0,0,0,0,0,0,0,0,0,0,0,0,0,0,0,0,0,0,0,0,0,0,0,0,0,0,0,0,0,0,0,0,0,0,0,0,0,0,0,0],"sum_hessian":[1.277E3,2.38E2,1.039E3,2.09E2,2.9E1,9.6E1,9.43E2,2.01E2,8E0,1.8E1,1.1E1,3.5E1,6.1E1,6.16E2,3.27E2,7E0,1.94E2,6E0,2E0,7E0,1.1E1,2E0,9E0,1.9E1,1.6E1,4.4E1,1.7E1,5.55E2,6.1E1,9.4E1,2.33E2,6E0,1E0,1.84E2,1E1,5E0,1E0,1E0,1E0,5E0,2E0,1E1,1E0,4E0,5E0,3E0,1.6E1,7E0,9E0,1E0,4.3E1,9E0,8E0,5.15E2,4E1,1.3E1,4.8E1,5.4E1,4E1,2.26E2,7E0],"tree_param":{"num_deleted":"0","num_feature":"20","num_nodes":"61","size_leaf_vector":"1"}},{"base_weights":[8.76717E-3,1.3035754E0,-1.3754013E-1,7.410352E-1,5.4544735E0,-1.0635934E0,9.155901E-2,4.1129985E0,5.8842152E-2,6.0792875E0,-1.6464639E-1,-1.5910484E0,1.2473682E0,4.1606835E-1,-9.043077E-1,4.806376E0,-4.1838986E-1,5.7590884E-1,-5.6362467E0,2.1176596E0,6.9672173E-1,1.6618841E0,-2.0029035E0,4.3224506E0,-1.4808496E0,-1.1636877E0,6.6790676E-1,-5.2504E0,-6.088551E-1,1.7710839E-1,7.6448816E-1,-9.7772904E-2,1.9520126E-1,-7.578421E-2,-7.136075E-1,-1.3560711E-1,3.7275934E-1,-1.01750664E-1,4.7109643E-1,-2.212061E-1,3.8038653E-1,5.576368E-1,-4.641872E-1,6.443035E-2,-6.430386E-1,-1.6767596E-1,2.482033E-1,2.6796055E-1,4.084207E-2,-5.9093666E-1,1.6580835E-1,-2.0747022E-1,2.1001441E-2],"categories":[],"categories_nodes":[],"categories_segments":[],"categories_sizes":[],"default_left":[0,0,0,0,0,0,0,0,0,0,0,0,0,0,0,0,0,0,0,0,0,0,0,0,0,0,0,0,0,0,0,0,0,0,0,0,0,0,0,0,0,0,0,0,0,0,0,0,0,0,0,0,0],"id":6,"left_children":[1,3,5,7,9,11,13,15,17,19,-1,21,23,25,27,29,-1,31,33,35,-1,37,39,41,43,45,47,49,51,-1,-1,-1,-1,-1,-1,-1,-1,-1,-1,-1,-1,-1,-1,-1,-1,-1,-1,-1,-1,-1,-1,-1,-1],"loss_changes":[2.3697917E2,2.92509E2,2.3856302E2,2.5969525E2,7.656082E1,2.738056E2,2.9187384E2,1.2941415E2,2.8299634E2,3.449292E1,0E0,2.4716074E2,3.5875967E2,2.7170853E2,2.8186557E2,1.4154276E2,0E0,1.9004965E2,5.31261E1,2.7424786E1,0E0,1.7635666E2,2.0516797E2,2.5069519E2,2.4606914E2,1.7999034E2,3.0584616E2,7.353265E1,2.5130624E2,0E0,0E0,0E0,0E0,0E0,0E0,0E0,0E0,0E0,0E0,0E0,0E0,0E0,0E0,0E0,0E0,0E0,0E0,0E0,0E0,0E0,0E0,0E0,0E0],"parents":[2147483647,0,0,1,1,2,2,3,3,4,4,5,5,6,6,7,7,8,8,9,9,11,11,12,12,13,13,14,14,15,15,17,17,18,18,19,19,21,21,22,22,23,23,24,24,25,25,26,26,27,27,28,28],"right_children":[2,4,6,8,10,12,14,16,18,20,-1,22,24,26,28,30,-1,32,34,36,-1,38,40,42,44,46,48,50,52,-1,-1,-1,-1,-1,-1,-1,-1,-1,-1,-1,-1,-1,-1,-1,-1,-1,-1,-1,-1,-1,-1,-1,-1],"split_conditions":[-1.2557108E0,1.4628956E0,-8.2445663E-1,-1.1132873E0,1.2169956E0,1.0719948E0,8.6632204E-1,1.3383532E0,1.1138066E0,-1.1398926E0,-1.6464639E-1,-1.3966795E0,3.2835633E-1,-1.3714547E0,9.1876996E-1,-2.5256634E-1,-4.1838986E-1,-1.1212871E-1,-1.869078E-1,-1.4285433E0,6.9672173E-1,1.0508932E-1,1.6530405E0,1.6880057E0,1.3945227E0,1.1757455E0,-1.0917326E0,1.2687796E0,-1.8959031E-3,1.7710839E-1,7.6448816E-1,-9.7772904E-2,1.9520126E-1,-7.578421E-2,-7.136075E-1,-1.3560711E-1,3.7275934E-1,-1.01750664E-1,4.7109643E-1,-2.212061E-1,3.8038653E-1,5.576368E-1,-4.641872E-1,6.443035E-2,-6.430386E-1,-1.6767596E-1,2.482033E-1,2.6796055E-1,4.084207E-2,-5.9093666E-1,1.6580835E-1,-2.0747022E-1,2.1001441E-2],"split_indices":[0,9,2,8,8,6,10,10,9,2,0,4,9,10,10,10,0,8,12,0,0,12,10,10,18,12,10,8,11,0,0,0,0,0,0,0,0,0,0,0,0,0,0,0,0,0,0,0,0,0,0,0,0],"split_type":[0,0,0,0,0,0,0,0,0,0,0,0,0,0,0,0,0,0,0,0,0,0,0,0,0,0,0,0,0,0,0,0,0,0,0,0,0,0,0,0,0,0,0,0,0,0,0,0,0,0,0,0,0],"sum_hessian":[1.249E3,1.26E2,1.123E3,1.12E2,1.4E1,2.22E2,9.01E2,1.8E1,9.4E1,1.3E1,1E0,1.81E2,4.1E1,6.8E2,2.21E2,1.7E1,1E0,8.7E1,7E0,3E0,1E1,2E1,1.61E2,1.9E1,2.2E1,9.3E1,5.87E2,1.3E1,2.08E2,9E0,8E0,4.1E1,4.6E1,2E0,5E0,1E0,2E0,1.1E1,9E0,1.56E2,5E0,1.7E1,2E0,1.6E1,6E0,8.2E1,1.1E1,6.6E1,5.21E2,1.2E1,1E0,7.4E1,1.34E2],"tree_param":{"num_deleted":"0","num_feature":"20","num_nodes":"53","size_leaf_vector":"1"}},{"base_weights":[1.0304531E-1,-1.0978989E-1,1.0425491E0,1.1199288E-1,-1.390155E0,2.1257093E0,-3.6940888E-1,2.74166E-1,-2.2286787E0,-1.7711465E0,4.19704E0,-4.1026846E-1,2.507321E0,-2.3007824E0,8.627237E-1,-4.2742795E-1,8.551001E-1,-1.1661667E0,-4.6601086E0,-7.421977E-1,-2.9603415E0,6.53202E0,-3.4285872E0,1.7101755E0,5.0871754E0,-6.1328096E0,-1.1511253E0,6.0004783E0,1.1335297E-1,-5.6827303E-2,6.069664E-1,2.2036386E-1,3.0629922E-2,-2.4608865E-1,1.8117593E-1,-6.020834E-1,1.2674578E-1,-3.2486764E-1,4.3195345E-2,-3.524375E-1,3.26739E-1,6.983616E-1,1.6854277E-1,-4.241902E-1,-9.0097904E-2,2.7683506E-2,3.16761E-1,-2.853532E-1,5.472684E-1,-2.276709E-1,-6.909309E-1,1.4306596E-1,-3.2386613E-1,6.791791E-1,2.4176943E-1,1.27439E-1,-2.8688893E-1],"categories":[],"categories_nodes":[],"categories_segments":[],"categories_sizes":[],"default_left":[0,0,0,0,0,0,0,0,0,0,0,0,0,0,0,0,0,0,0,0,0,0,0,0,0,0,0,0,0,0,0,0,0,0,0,0,0,0,0,0,0,0,0,0,0,0,0,0,0,0,0,0,0,0,0,0,0],"id":7,"left_children":[1,3,5,7,9,11,13,15,17,19,21,-1,23,25,27,29,31,33,35,37,39,41,43,45,47,49,51,53,55,-1,-1,-1,-1,-1,-1,-1,-1,-1,-1,-1,-1,-1,-1,-1,-1,-1,-1,-1,-1,-1,-1,-1,-1,-1,-1,-1,-1],"loss_changes":[2.5226335E2,2.9235355E2,3.5713E2,3.338945E2,3.3099207E2,3.240279E2,2.4471518E2,3.3539615E2,1.4182065E2,1.7278055E2,2.004525E2,0E0,2.4836499E2,1.6916107E2,2.4187506E2,3.4477533E2,3.3236063E2,1.625373E2,1.447496E2,2.3095609E2,2.433504E2,5.739197E0,2.3453598E0,2.0175607E2,1.0439154E2,1.1217834E1,1.7709962E2,6.2603455E0,1.9755573E2,0E0,0E0,0E0,0E0,0E0,0E0,0E0,0E0,0E0,0E0,0E0,0E0,0E0,0E0,0E0,0E0,0E0,0E0,0E0,0E0,0E0,0E0,0E0,0E0,0E0,0E0,0E0,0E0],"parents":[2147483647,0,0,1,1,2,2,3,3,4,4,5,5,6,6,7,7,8,8,9,9,10,10,12,12,13,13,14,14,15,15,16,16,17,17,18,18,19,19,20,20,21,21,22,22,23,23,24,24,25,25,26,26,27,27,28,28],"right_children":[2,4,6,8,10,12,14,16,18,20,22,-1,24,26,28,30,32,34,36,38,40,42,44,46,48,50,52,54,56,-1,-1,-1,-1,-1,-1,-1,-1,-1,-1,-1,-1,-1,-1,-1,-1,-1,-1,-1,-1,-1,-1,-1,-1,-1,-1,-1,-1],"split_conditions":[1.1133778E0,7.151385E-1,1.6701682E-1,1.5321168E0,1.5321168E0,-1.4285433E0,-2.2750342E-1,-2.9847196E-1,1.3992705E0,4.9108192E-2,1.6016328E0,-4.1026846E-1,1.0681589E0,1.2385387E0,-1.0828785E0,1.6137412E0,2.5765628E-1,7.336777E-1,1.351539E0,8.516777E-1,1.3835949E0,1.4963073E0,-1.4285433E0,3.5511512E-1,-1.734696E0,-1.5408261E0,-1.9358478E-1,1.0681589E0,1.078907E0,-5.6827303E-2,6.069664E-1,2.2036386E-1,3.0629922E-2,-2.4608865E-1,1.8117593E-1,-6.020834E-1,1.2674578E-1,-3.2486764E-1,4.3195345E-2,-3.524375E-1,3.26739E-1,6.983616E-1,1.6854277E-1,-4.241902E-1,-9.0097904E-2,2.7683506E-2,3.16761E-1,-2.853532E-1,5.472684E-1,-2.276709E-1,-6.909309E-1,1.4306596E-1,-3.2386613E-1,6.791791E-1,2.4176943E-1,1.27439E-1,-2.8688893E-1],"split_indices":[7,7,10,1,1,0,6,1,19,1,1,0,2,7,0,12,1,8,13,7,2,4,0,4,8,6,2,2,6,0,0,0,0,0,0,0,0,0,0,0,0,0,0,0,0,0,0,0,0,0,0,0,0,0,0,0,0],"split_type":[0,0,0,0,0,0,0,0,0,0,0,0,0,0,0,0,0,0,0,0,0,0,0,0,0,0,0,0,0,0,0,0,0,0,0,0,0,0,0,0,0,0,0,0,0,0,0,0,0,0,0,0,0,0,0,0,0],"sum_hessian":[1.26E3,1.028E3,2.32E2,8.77E2,1.51E2,1.31E2,1.01E2,8.21E2,5.6E1,1.42E2,9E0,7E0,1.24E2,3.9E1,6.2E1,3.72E2,4.49E2,4E1,1.6E1,7.7E1,6.5E1,7E0,2E0,9.6E1,2.8E1,8E0,3.1E1,7E0,5.5E1,3.65E2,7E0,1.29E2,3.2E2,2.8E1,1.2E1,1.3E1,3E0,2.4E1,5.3E1,6E1,5E0,6E0,1E0,1E0,1E0,4.9E1,4.7E1,1E0,2.7E1,2E0,6E0,1.4E1,1.7E1,5E0,2E0,4E1,1.5E1],"tree_param":{"num_deleted":"0","num_feature":"20","num_nodes":"57","size_leaf_vector":"1"}},{"base_weights":[-1.5882764E-2,-5.410236E-1,3.9473143E-1,-1.3668656E0,3.5685502E-2,2.5287437E0,2.3521574E-1,-3.0707173E0,-8.682029E-1,3.191557E-1,-2.771859E0,-1.1915705E0,3.637034E0,1.3562654E-1,2.978847E0,-3.8362112E0,2.288988E0,-2.1393154E0,1.09459035E-1,9.1171616E-1,-8.3979046E-1,-4.466207E0,1.4184697E-1,-4.351678E0,4.102916E0,4.5771174E0,-1.1800672E0,-9.635628E-1,4.6510655E-1,3.964149E0,-4.9112162E-1,-6.6537184E-1,-2.8411028E-1,3.6219805E-1,3.837488E-2,-4.3399982E-2,-4.6557838E-1,5.0831642E-2,-5.319242E-1,3.9974593E-2,2.5371584E-1,1.01578765E-1,-1.9284181E-1,1.3824597E-2,-5.7032776E-1,-2.5213236E-1,4.3745503E-1,-1.1462479E-1,-4.6458468E-1,5.8937603E-1,-1.5302315E-1,5.445733E-1,6.969575E-2,-2.8073886E-1,1.925491E-1,-1.9450001E-1,1.4553784E-1,5.6492962E-2,-4.3828937E-1,5.014296E-1,-4.0081644E-1],"categories":[],"categories_nodes":[],"categories_segments":[],"categories_sizes":[],"default_left":[0,0,0,0,0,0,0,0,0,0,0,0,0,0,0,0,0,0,0,0,0,0,0,0,0,0,0,0,0,0,0,0,0,0,0,0,0,0,0,0,0,0,0,0,0,0,0,0,0,0,0,0,0,0,0,0,0,0,0,0,0],"id":8,"left_children":[1,3,5,7,9,11,13,15,17,19,21,23,25,27,29,31,33,35,37,39,41,43,45,47,49,51,53,55,57,59,-1,-1,-1,-1,-1,-1,-1,-1,-1,-1,-1,-1,-1,-1,-1,-1,-1,-1,-1,-1,-1,-1,-1,-1,-1,-1,-1,-1,-1,-1,-1],"loss_changes":[2.7126083E2,2.629502E2,2.3973358E2,1.9020395E2,2.6033344E2,2.0636993E2,1.7938533E2,2.1802493E2,2.2019533E2,2.047291E2,1.4873846E2,2.186283E2,1.7748349E2,2.307825E2,1.9827301E2,1.0726373E2,1.6387756E1,3.284151E2,2.2139687E2,1.6292484E2,2.0598227E2,1.0901309E2,1.4629858E2,2.218216E0,5.9459267E1,1.04056335E2,4.078179E1,3.5181442E2,2.396077E2,1.959122E2,0E0,0E0,0E0,0E0,0E0,0E0,0E0,0E0,0E0,0E0,0E0,0E0,0E0,0E0,0E0,0E0,0E0,0E0,0E0,0E0,0E0,0E0,0E0,0E0,0E0,0E0,0E0,0E0,0E0,0E0,0E0],"parents":[2147483647,0,0,1,1,2,2,3,3,4,4,5,5,6,6,7,7,8,8,9,9,10,10,11,11,12,12,13,13,14,14,15,15,16,16,17,17,18,18,19,19,20,20,21,21,22,22,23,23,24,24,25,25,26,26,27,27,28,28,29,29],"right_children":[2,4,6,8,10,12,14,16,18,20,22,24,26,28,30,32,34,36,38,40,42,44,46,48,50,52,54,56,58,60,-1,-1,-1,-1,-1,-1,-1,-1,-1,-1,-1,-1,-1,-1,-1,-1,-1,-1,-1,-1,-1,-1,-1,-1,-1,-1,-1,-1,-1,-1,-1],"split_conditions":[-1.4960977E-1,-1.9358478E-1,-1.4927127E0,-8.819411E-1,1.3930848E0,-1.1616632E0,1.670523E0,1.1757455E0,4.1184512E-1,6.040826E-1,1.1311406E-1,6.4544576E-1,1.2230232E0,-8.799625E-1,1.375078E0,-9.53287E-1,-3.7266013E-1,1.8131432E-1,1.6016328E0,-7.8095E-3,-5.0935805E-1,-1.5342247E0,1.5552888E0,-1.0631483E0,5.820644E-1,1.3024433E0,1.2157823E0,8.240754E-1,1.6248049E0,1.7579362E0,-4.9112162E-1,-6.6537184E-1,-2.8411028E-1,3.6219805E-1,3.837488E-2,-4.3399982E-2,-4.6557838E-1,5.0831642E-2,-5.319242E-1,3.9974593E-2,2.5371584E-1,1.01578765E-1,-1.9284181E-1,1.3824597E-2,-5.7032776E-1,-2.5213236E-1,4.3745503E-1,-1.1462479E-1,-4.6458468E-1,5.8937603E-1,-1.5302315E-1,5.445733E-1,6.969575E-2,-2.8073886E-1,1.925491E-1,-1.9450001E-1,1.4553784E-1,5.6492962E-2,-4.3828937E-1,5.014296E-1,-4.0081644E-1],"split_indices":[7,2,4,10,1,10,10,12,5,10,13,0,13,13,7,6,6,8,1,10,4,13,1,1,1,5,7,4,1,10,0,0,0,0,0,0,0,0,0,0,0,0,0,0,0,0,0,0,0,0,0,0,0,0,0,0,0,0,0,0,0],"split_type":[0,0,0,0,0,0,0,0,0,0,0,0,0,0,0,0,0,0,0,0,0,0,0,0,0,0,0,0,0,0,0,0,0,0,0,0,0,0,0,0,0,0,0,0,0,0,0,0,0,0,0,0,0,0,0,0,0,0,0,0,0],"sum_hessian":[1.256E3,5.51E2,7.05E2,2.26E2,3.25E2,4.8E1,6.57E2,5E1,1.76E2,2.96E2,2.9E1,1.1E1,3.7E1,6.35E2,2.2E1,4.4E1,6E0,7.6E1,1E2,1.96E2,1E2,1.8E1,1.1E1,7E0,4E0,3.1E1,6E0,1.46E2,4.89E2,2E1,2E0,1E1,3.4E1,3E0,3E0,4.6E1,3E1,9.4E1,6E0,1.5E2,4.6E1,3.7E1,6.3E1,4E0,1.4E1,7E0,4E0,1E0,6E0,3E0,1E0,2.5E1,6E0,4E0,2E0,1.04E2,4.2E1,4.8E2,9E0,1.8E1,2E0],"tree_param":{"num_deleted":"0","num_feature":"20","num_nodes":"61","size_leaf_vector":"1"}},{"base_weights":[-1.1246496E-1,-6.7328155E-1,1.3850568E-1,-3.011514E-2,-1.5624121E0,5.131091E-1,-4.8935488E-1,-3.0614212E-1,2.2943668E0,-4.5065334E-1,-3.3023086E0,6.9798326E-1,-1.8844501E0,-1.0580624E0,1.4385674E0,3.339444E-1,-2.2586842E0,5.5791726E0,-2.8622787E0,-2.1750352E0,9.4305795E-1,-3.788366E0,4.814132E0,1.4039031E0,1.4425087E-1,4.7649795E-1,-3.9308102E0,3.7154466E-1,-1.7580584E0,3.4638953E0,3.9713204E-1,-3.8076088E-1,8.117046E-2,8.261814E-2,-3.8728932E-1,6.270246E-1,2.111161E-1,-4.9342632E-1,3.6171064E-1,3.0765936E-1,-2.7624282E-1,3.708447E-1,-5.772349E-2,1.9155738E-1,-4.229997E-1,6.9540524E-1,-8.02814E-2,1.1669766E-1,5.10496E-1,5.1847186E-2,-1.7950718E-1,-1.06184386E-1,3.9865458E-1,-4.7923008E-1,9.285996E-2,-2.8165957E-1,1.1749303E-1,1.4123824E-1,-2.1718219E-1,-2.58476E-1,4.739104E-1,-1.4604793E-1,2.1680224E-1],"categories":[],"categories_nodes":[],"categories_segments":[],"categories_sizes":[],"default_left":[0,0,0,0,0,0,0,0,0,0,0,0,0,0,0,0,0,0,0,0,0,0,0,0,0,0,0,0,0,0,0,0,0,0,0,0,0,0,0,0,0,0,0,0,0,0,0,0,0,0,0,0,0,0,0,0,0,0,0,0,0,0,0],"id":9,"left_children":[1,3,5,7,9,11,13,15,17,19,21,23,25,27,29,31,33,35,37,39,41,43,45,47,49,51,53,55,57,59,61,-1,-1,-1,-1,-1,-1,-1,-1,-1,-1,-1,-1,-1,-1,-1,-1,-1,-1,-1,-1,-1,-1,-1,-1,-1,-1,-1,-1,-1,-1,-1,-1],"loss_changes":[1.757474E2,2.206905E2,2.032276E2,1.4506685E2,3.118757E2,2.4111182E2,3.5566702E2,2.5321303E2,4.2249506E2,2.4238025E2,2.6677637E2,1.9641551E2,1.9029567E2,2.5083301E2,1.5470871E2,3.058271E2,2.5218057E2,2.271222E1,1.5209962E2,1.473135E2,2.375759E2,1.59245E2,5.3662064E1,1.8783276E2,2.0631377E2,1.068265E2,9.236319E1,2.1589774E2,2.2345197E2,2.0508188E2,1.6764766E2,0E0,0E0,0E0,0E0,0E0,0E0,0E0,0E0,0E0,0E0,0E0,0E0,0E0,0E0,0E0,0E0,0E0,0E0,0E0,0E0,0E0,0E0,0E0,0E0,0E0,0E0,0E0,0E0,0E0,0E0,0E0,0E0],"parents":[2147483647,0,0,1,1,2,2,3,3,4,4,5,5,6,6,7,7,8,8,9,9,10,10,11,11,12,12,13,13,14,14,15,15,16,16,17,17,18,18,19,19,20,20,21,21,22,22,23,23,24,24,25,25,26,26,27,27,28,28,29,29,30,30],"right_children":[2,4,6,8,10,12,14,16,18,20,22,24,26,28,30,32,34,36,38,40,42,44,46,48,50,52,54,56,58,60,62,-1,-1,-1,-1,-1,-1,-1,-1,-1,-1,-1,-1,-1,-1,-1,-1,-1,-1,-1,-1,-1,-1,-1,-1,-1,-1,-1,-1,-1,-1,-1,-1],"split_conditions":[-5.643812E-1,3.4184313E-1,3.7183556E-1,1.3723478E0,3.3666652E-1,1.4759159E0,9.9959517E-1,8.837483E-1,1.3992705E0,9.712179E-1,1.6111484E0,4.1184512E-1,1.2185114E-1,-6.3532466E-1,-1.8959031E-3,-1.5113158E0,-8.819411E-1,7.147359E-1,4.315389E-1,-1.6099483E0,-4.9708018E-1,-1.6197355E0,-1.0828785E0,1.3550864E0,1.2157823E0,2.713861E-1,6.503491E-1,-1.0484928E0,-3.9154878E-1,-1.4786161E0,1.2430805E0,-3.8076088E-1,8.117046E-2,8.261814E-2,-3.8728932E-1,6.270246E-1,2.111161E-1,-4.9342632E-1,3.6171064E-1,3.0765936E-1,-2.7624282E-1,3.708447E-1,-5.772349E-2,1.9155738E-1,-4.229997E-1,6.9540524E-1,-8.02814E-2,1.1669766E-1,5.10496E-1,5.1847186E-2,-1.7950718E-1,-1.06184386E-1,3.9865458E-1,-4.7923008E-1,9.285996E-2,-2.8165957E-1,1.1749303E-1,1.4123824E-1,-2.1718219E-1,-2.58476E-1,4.739104E-1,-1.4604793E-1,2.1680224E-1],"split_indices":[0,10,4,8,8,8,7,12,19,10,6,5,2,6,11,10,10,4,4,6,6,4,0,8,7,7,6,7,0,6,11,0,0,0,0,0,0,0,0,0,0,0,0,0,0,0,0,0,0,0,0,0,0,0,0,0,0,0,0,0,0,0,0],"split_type":[0,0,0,0,0,0,0,0,0,0,0,0,0,0,0,0,0,0,0,0,0,0,0,0,0,0,0,0,0,0,0,0,0,0,0,0,0,0,0,0,0,0,0,0,0,0,0,0,0,0,0,0,0,0,0,0,0,0,0,0,0,0,0],"sum_hessian":[1.247E3,3.85E2,8.62E2,2.24E2,1.61E2,5.4E2,3.22E2,2.01E2,2.3E1,9.9E1,6.2E1,5.02E2,3.8E1,2.49E2,7.3E1,1.52E2,4.9E1,1.4E1,9E0,4.4E1,5.5E1,5.9E1,3E0,2.2E2,2.82E2,1.8E1,2E1,8.2E1,1.67E2,2.4E1,4.9E1,1.5E1,1.37E2,1.7E1,3.2E1,1.1E1,3E0,7E0,2E0,4E0,4E1,1.9E1,3.6E1,4E0,5.5E1,2E0,1E0,2.08E2,1.2E1,2.37E2,4.5E1,1.3E1,5E0,1.7E1,3E0,1.6E1,6.6E1,1.9E1,1.48E2,4E0,2E1,2.4E1,2.5E1],"tree_param":{"num_deleted":"0","num_feature":"20","num_nodes":"63","size_leaf_vector":"1"}},{"base_weights":[-1.7325007E-4,1.12054355E-1,-1.9542514E0,-1.1110264E-1,8.6789364E-1,-3.2767031E0,3.080437E-1,-1.8972324E-1,3.4166553E0,-4.642545E0,1.1421875E0,-4.1056204E0,1.5728171E0,-4.784236E0,1.748312E0,-1.2571386E0,4.7577072E-2,-1.1630744E0,5.02077E0,-4.1438174E-1,-5.8695564E0,-6.401612E-1,1.2261297E0,-4.4612966E0,4.3493634E-1,7.741419E-2,2.1554954E-1,-5.385402E-1,-8.892041E-2,-1.3722042E0,2.5632691E0,-1.7492728E-1,1.4033094E-1,1.4076943E-2,-3.466807E-1,1.32766E-1,-2.7403566E-1,-3.285763E-1,5.8487916E-1,3.5462793E-2,-1.3607053E-1,-1.904767E-1,-6.622658E-1,2.1121673E-1,5.652904E-2,-5.309032E-1,-2.051986E-1,4.717021E-2,-3.5558082E-2,1.1470973E-1,-3.4341043E-1,-2.6559606E-2,3.764096E-1],"categories":[],"categories_nodes":[],"categories_segments":[],"categories_sizes":[],"default_left":[0,0,0,0,0,0,0,0,0,0,0,0,0,0,0,0,0,0,0,0,0,0,0,0,0,0,0,0,0,0,0,0,0,0,0,0,0,0,0,0,0,0,0,0,0,0,0,0,0,0,0,0,0],"id":10,"left_children":[1,3,5,7,9,11,13,15,17,19,21,23,25,27,29,31,33,35,37,39,41,-1,43,45,-1,47,-1,-1,-1,49,51,-1,-1,-1,-1,-1,-1,-1,-1,-1,-1,-1,-1,-1,-1,-1,-1,-1,-1,-1,-1,-1,-1],"loss_changes":[2.745652E2,1.9980267E2,2.0445013E2,2.5442754E2,4.134021E2,1.79311E2,1.9905482E2,2.2701483E2,1.5276779E2,6.501181E1,1.7122601E2,1.3067157E2,5.9325066E0,9.260635E0,5.692215E1,2.1587021E2,2.4088306E2,2.7209808E1,1.2238751E2,3.3934724E0,1.7244232E1,0E0,1.4870132E2,6.263446E1,0E0,6.799023E-1,0E0,0E0,0E0,2.9911991E1,5.8748337E1,0E0,0E0,0E0,0E0,0E0,0E0,0E0,0E0,0E0,0E0,0E0,0E0,0E0,0E0,0E0,0E0,0E0,0E0,0E0,0E0,0E0,0E0],"parents":[2147483647,0,0,1,1,2,2,3,3,4,4,5,5,6,6,7,7,8,8,9,9,10,10,11,11,12,12,13,13,14,14,15,15,16,16,17,17,18,18,19,19,20,20,22,22,23,23,25,25,29,29,30,30],"right_children":[2,4,6,8,10,12,14,16,18,20,22,24,26,28,30,32,34,36,38,40,42,-1,44,46,-1,48,-1,-1,-1,50,52,-1,-1,-1,-1,-1,-1,-1,-1,-1,-1,-1,-1,-1,-1,-1,-1,-1,-1,-1,-1,-1,-1],"split_conditions":[1.5552888E0,1.0265343E0,1.3945227E0,1.6291308E0,-1.5575912E0,1.351539E0,-1.2191669E0,-8.2445663E-1,-1.155272E0,-6.7306083E-1,-1.7174507E0,1.6624073E0,-8.2445663E-1,1.6943209E0,-1.3242731E0,1.0719948E0,1.6140068E0,-5.0902075E-1,-1.6812773E0,-5.0902075E-1,1.1138066E0,-6.401612E-1,-1.869078E-1,5.646897E-1,4.3493634E-1,1.6016328E0,2.1554954E-1,-5.385402E-1,-8.892041E-2,1.6479769E0,1.6016328E0,-1.7492728E-1,1.4033094E-1,1.4076943E-2,-3.466807E-1,1.32766E-1,-2.7403566E-1,-3.285763E-1,5.8487916E-1,3.5462793E-2,-1.3607053E-1,-1.904767E-1,-6.622658E-1,2.1121673E-1,5.652904E-2,-5.309032E-1,-2.051986E-1,4.717021E-2,-3.5558082E-2,1.1470973E-1,-3.4341043E-1,-2.6559606E-2,3.764096E-1],"split_indices":[1,9,18,3,13,13,7,2,9,4,3,12,2,1,3,6,8,2,4,2,9,0,12,4,0,1,0,0,0,1,1,0,0,0,0,0,0,0,0,0,0,0,0,0,0,0,0,0,0,0,0,0,0],"split_type":[0,0,0,0,0,0,0,0,0,0,0,0,0,0,0,0,0,0,0,0,0,0,0,0,0,0,0,0,0,0,0,0,0,0,0,0,0,0,0,0,0,0,0,0,0,0,0,0,0,0,0,0,0],"sum_hessian":[1.25E3,1.183E3,6.7E1,9.14E2,2.69E2,4.2E1,2.5E1,8.95E2,1.9E1,1.2E1,2.57E2,3.6E1,6E0,5E0,2E1,1.62E2,7.33E2,5E0,1.4E1,3E0,9E0,2E0,2.55E2,3.5E1,1E0,2E0,4E0,4E0,1E0,4E0,1.6E1,1.37E2,2.5E1,7.15E2,1.8E1,2E0,3E0,1E0,1.3E1,2E0,1E0,2E0,7E0,1.08E2,1.47E2,2.5E1,1E1,1E0,1E0,2E0,2E0,5E0,1.1E1],"tree_param":{"num_deleted":"0","num_feature":"20","num_nodes":"53","size_leaf_vector":"1"}},{"base_weights":[1.3647181E-1,7.167374E-2,1.9551784E0,-6.771087E-1,2.3615247E-1,-3.2114363E0,2.5674322E0,7.2572105E-2,-2.4428585E0,6.2856776E-1,-2.6570866E-1,-3.6391798E-1,-7.5023174E-2,4.047085E0,-3.6388236E-1,-9.4249976E-1,1.5147434E0,-4.3831325E-1,-4.1485167E0,3.1460807E-1,2.2328598E0,-2.741719E0,-8.9066476E-2,8.3003545E-1,5.4307714E0,-2.4099593E0,2.0264745E0,-2.0286825E-1,1.3336946E-1,5.00923E-1,-3.0835977E-2,-4.585773E-1,1.20366275E-1,1.5948725E-1,-4.5449305E-1,4.4739813E-2,-2.2682695E-1,-4.1559765E-1,2.8987235E-1,-3.775325E-1,4.4341203E-2,-8.568599E-2,4.4652842E-2,2.3330115E-1,-2.9535872E-1,2.3608008E-1,5.887379E-1,2.6142007E-1,-3.501154E-1,4.9458432E-1,-1.3044166E-2],"categories":[],"categories_nodes":[],"categories_segments":[],"categories_sizes":[],"default_left":[0,0,0,0,0,0,0,0,0,0,0,0,0,0,0,0,0,0,0,0,0,0,0,0,0,0,0,0,0,0,0,0,0,0,0,0,0,0,0,0,0,0,0,0,0,0,0,0,0,0,0],"id":11,"left_children":[1,3,5,7,9,11,13,15,17,19,21,-1,-1,23,25,27,29,31,33,35,37,39,41,43,45,47,49,-1,-1,-1,-1,-1,-1,-1,-1,-1,-1,-1,-1,-1,-1,-1,-1,-1,-1,-1,-1,-1,-1,-1,-1],"loss_changes":[1.4728853E2,1.4905887E2,1.4426616E2,2.8875452E2,1.9552948E2,2.5335884E0,1.7062845E2,2.2686942E2,2.2042114E2,2.7984894E2,1.9044821E2,0E0,0E0,1.1122836E2,7.335568E1,2.2769067E2,4.0927643E2,2.1663063E2,8.693518E1,1.6118669E2,3.9916953E2,9.714697E1,1.681629E2,5.8071E1,1.1332947E1,5.30114E1,4.4722984E1,0E0,0E0,0E0,0E0,0E0,0E0,0E0,0E0,0E0,0E0,0E0,0E0,0E0,0E0,0E0,0E0,0E0,0E0,0E0,0E0,0E0,0E0,0E0,0E0],"parents":[2147483647,0,0,1,1,2,2,3,3,4,4,5,5,6,6,7,7,8,8,9,9,10,10,13,13,14,14,15,15,16,16,17,17,18,18,19,19,20,20,21,21,22,22,23,23,24,24,25,25,26,26],"right_children":[2,4,6,8,10,12,14,16,18,20,22,-1,-1,24,26,28,30,32,34,36,38,40,42,44,46,48,50,-1,-1,-1,-1,-1,-1,-1,-1,-1,-1,-1,-1,-1,-1,-1,-1,-1,-1,-1,-1,-1,-1,-1,-1],"split_conditions":[1.6249728E0,-1.0863203E0,-1.631128E0,-1.2948684E0,2.8488246E-1,-5.30192E-1,2.7641738E-3,4.2856193E-1,-7.5434476E-2,-9.4867356E-2,-9.241162E-1,-3.6391798E-1,-7.5023174E-2,-4.78753E-1,-1.4391753E-1,9.4081396E-1,-5.662024E-1,-2.842402E-1,-1.1398926E0,1.6016328E0,-1.545908E0,1.4241319E0,9.235526E-1,4.3728706E-1,-1.7119645E0,-1.2557108E0,1.6664461E0,-2.0286825E-1,1.3336946E-1,5.00923E-1,-3.0835977E-2,-4.585773E-1,1.20366275E-1,1.5948725E-1,-4.5449305E-1,4.4739813E-2,-2.2682695E-1,-4.1559765E-1,2.8987235E-1,-3.775325E-1,4.4341203E-2,-8.568599E-2,4.4652842E-2,2.3330115E-1,-2.9535872E-1,2.3608008E-1,5.887379E-1,2.6142007E-1,-3.501154E-1,4.9458432E-1,-1.3044166E-2],"split_indices":[6,1,8,1,8,1,1,13,6,8,1,0,0,5,13,8,6,12,2,1,13,8,8,2,1,0,6,0,0,0,0,0,0,0,0,0,0,0,0,0,0,0,0,0,0,0,0,0,0,0,0],"split_type":[0,0,0,0,0,0,0,0,0,0,0,0,0,0,0,0,0,0,0,0,0,0,0,0,0,0,0,0,0,0,0,0,0,0,0,0,0,0,0,0,0,0,0,0,0,0,0,0,0,0,0],"sum_hessian":[1.25E3,1.208E3,4.2E1,2.17E2,9.91E2,4E0,3.8E1,1.53E2,6.4E1,5.56E2,4.35E2,3E0,1E0,2.5E1,1.3E1,9E1,6.3E1,3E1,3.4E1,4.66E2,9E1,2.8E1,4.07E2,8E0,1.7E1,7E0,6E0,6.1E1,2.9E1,2.1E1,4.2E1,8E0,2.2E1,2E0,3.2E1,4.44E2,2.2E1,8E0,8.2E1,2.1E1,7E0,1.67E2,2.4E2,6E0,2E0,3E0,1.4E1,1E0,6E0,2E0,4E0],"tree_param":{"num_deleted":"0","num_feature":"20","num_nodes":"51","size_leaf_vector":"1"}},{"base_weights":[7.521615E-2,-6.6732615E-4,2.5670836E0,3.0775768E-1,-6.6214556E-1,-3.9321904E0,3.2562017E0,1.6961986E-1,2.832056E0,-3.6279878E-1,-3.4018621E0,-5.983216E-1,1.1104431E-1,-2.0651727E0,3.837792E0,-1.1540746E-2,1.8187939E0,-8.509393E-1,3.831994E0,4.0335548E-1,-1.064171E0,-6.122302E0,-1.7423412E0,-4.3241858E-1,2.3559332E-1,5.3954387E0,1.5609753E0,-2.5296828E-2,1.5011945E-1,-1.1941906E-1,3.0237913E-1,2.2585092E-1,-3.3003232E-1,4.5735487E-1,-3.9085183E-2,1.4542662E-1,-1.08869456E-1,-1.6908254E-2,-2.8515762E-1,-7.1793765E-1,1.4676285E-2,-1.6730225E-2,-4.5238215E-1,-1.3631706E-1,5.873191E-1,6.06815E-1,-8.487094E-2],"categories":[],"categories_nodes":[],"categories_segments":[],"categories_sizes":[],"default_left":[0,0,0,0,0,0,0,0,0,0,0,0,0,0,0,0,0,0,0,0,0,0,0,0,0,0,0,0,0,0,0,0,0,0,0,0,0,0,0,0,0,0,0,0,0,0,0],"id":12,"left_children":[1,3,5,7,9,11,13,15,17,19,21,-1,-1,23,25,27,29,31,33,35,37,39,41,-1,-1,43,45,-1,-1,-1,-1,-1,-1,-1,-1,-1,-1,-1,-1,-1,-1,-1,-1,-1,-1,-1,-1],"loss_changes":[2.3674438E2,2.4828775E2,1.7851834E2,2.8894147E2,3.1615433E2,4.80143E1,1.1315094E2,2.354481E2,1.6161975E2,1.88505E2,1.6088864E2,0E0,0E0,5.013684E1,1.01518585E2,2.600483E2,2.8680075E2,8.3616135E1,1.0825754E2,2.6500916E2,2.9229694E2,9.3829895E1,1.0876664E2,0E0,0E0,6.6127075E1,1.5720227E2,0E0,0E0,0E0,0E0,0E0,0E0,0E0,0E0,0E0,0E0,0E0,0E0,0E0,0E0,0E0,0E0,0E0,0E0,0E0,0E0],"parents":[2147483647,0,0,1,1,2,2,3,3,4,4,5,5,6,6,7,7,8,8,9,9,10,10,13,13,14,14,15,15,16,16,17,17,18,18,19,19,20,20,21,21,22,22,25,25,26,26],"right_children":[2,4,6,8,10,12,14,16,18,20,22,-1,-1,24,26,28,30,32,34,36,38,40,42,-1,-1,44,46,-1,-1,-1,-1,-1,-1,-1,-1,-1,-1,-1,-1,-1,-1,-1,-1,-1,-1,-1,-1],"split_conditions":[1.5948421E0,6.233276E-1,-1.5275599E0,1.5627627E0,1.351539E0,-1.2253523E0,-1.6099483E0,3.833064E-1,-1.0787646E0,-1.6515318E-1,-4.2268816E-1,-5.983216E-1,1.1104431E-1,1.2694848E-1,1.8814024E-1,1.2347064E0,-7.640362E-1,-6.933602E-1,1.0223325E0,4.4303235E-1,6.019635E-1,1.3068166E0,1.6202538E0,-4.3241858E-1,2.3559332E-1,-1.3298165E0,-1.444055E0,-2.5296828E-2,1.5011945E-1,-1.1941906E-1,3.0237913E-1,2.2585092E-1,-3.3003232E-1,4.5735487E-1,-3.9085183E-2,1.4542662E-1,-1.08869456E-1,-1.6908254E-2,-2.8515762E-1,-7.1793765E-1,1.4676285E-2,-1.6730225E-2,-4.5238215E-1,-1.3631706E-1,5.873191E-1,6.06815E-1,-8.487094E-2],"split_indices":[3,3,8,6,13,1,6,3,8,10,7,0,0,0,1,13,7,3,1,1,6,3,13,0,0,9,6,0,0,0,0,0,0,0,0,0,0,0,0,0,0,0,0,0,0,0,0],"split_type":[0,0,0,0,0,0,0,0,0,0,0,0,0,0,0,0,0,0,0,0,0,0,0,0,0,0,0,0,0,0,0,0,0,0,0,0,0,0,0,0,0,0,0,0,0,0,0],"sum_hessian":[1.251E3,1.215E3,3.6E1,8.29E2,3.86E2,3E0,3.3E1,7.87E2,4.2E1,3.49E2,3.7E1,2E0,1E0,3E0,3E1,7.1E2,7.7E1,9E0,3.3E1,1.67E2,1.82E2,1.3E1,2.4E1,2E0,1E0,1.7E1,1.3E1,6.13E2,9.7E1,2.2E1,5.5E1,4E0,5E0,2.8E1,5E0,9.8E1,6.9E1,1.22E2,6E1,1.1E1,2E0,1.6E1,8E0,1E0,1.6E1,4E0,9E0],"tree_param":{"num_deleted":"0","num_feature":"20","num_nodes":"47","size_leaf_vector":"1"}},{"base_weights":[-3.528381E-2,-9.075516E-2,2.2457645E0,-6.628303E-2,-5.084257E0,3.8622048E0,1.225322E-1,-9.186998E-2,4.409936E0,1.7327547E-2,-6.170419E-1,-1.9227376E0,4.761713E0,1.7028799E0,-2.2684114E0,-7.0602906E-1,1.1947471E-1,7.0168144E-1,5.7529014E-1,-2.4720691E-1,-4.1203737E-2,5.227829E-1,-8.8195615E-2,2.7649107E0,-3.396684E-1,-2.750216E-1,-8.69868E-2,4.9666205E-1,-8.90307E-2,2.7782002E-1,4.4319397E-3,-2.4972154E-2,1.3022438E-1,5.023473E-2,3.4353742E-1],"categories":[],"categories_nodes":[],"categories_segments":[],"categories_sizes":[],"default_left":[0,0,0,0,0,0,0,0,0,0,0,0,0,0,0,0,0,0,0,0,0,0,0,0,0,0,0,0,0,0,0,0,0,0,0],"id":13,"left_children":[1,3,5,7,9,11,13,15,17,-1,-1,19,21,23,25,27,29,31,-1,-1,-1,-1,-1,33,-1,-1,-1,-1,-1,-1,-1,-1,-1,-1,-1],"loss_changes":[1.5988823E2,1.5033757E2,1.02489105E2,1.4105139E2,3.5332336E1,9.761679E1,5.676214E1,1.5869905E2,3.08237E1,0E0,0E0,1.4710417E0,4.4069794E1,5.8134583E1,1.6506252E0,3.3161438E2,1.8171066E2,2.0393286E0,0E0,0E0,0E0,0E0,0E0,1.0409969E1,0E0,0E0,0E0,0E0,0E0,0E0,0E0,0E0,0E0,0E0,0E0],"parents":[2147483647,0,0,1,1,2,2,3,3,4,4,5,5,6,6,7,7,8,8,11,11,12,12,13,13,14,14,15,15,16,16,17,17,23,23],"right_children":[2,4,6,8,10,12,14,16,18,-1,-1,20,22,24,26,28,30,32,-1,-1,-1,-1,-1,34,-1,-1,-1,-1,-1,-1,-1,-1,-1,-1,-1],"split_conditions":[1.6526216E0,1.7003136E0,3.9708644E-1,2.3299026E0,-1.2948684E0,-1.6192765E0,5.516347E-1,-8.546002E-1,-1.4285433E0,1.7327547E-2,-6.170419E-1,-1.0828785E0,1.5104387E0,1.0681589E0,3.271723E-1,-1.5287985E0,-8.0825615E-1,-8.0825615E-1,5.7529014E-1,-2.4720691E-1,-4.1203737E-2,5.227829E-1,-8.8195615E-2,2.997809E-1,-3.396684E-1,-2.750216E-1,-8.69868E-2,4.9666205E-1,-8.90307E-2,2.7782002E-1,4.4319397E-3,-2.4972154E-2,1.3022438E-1,5.023473E-2,3.4353742E-1],"split_indices":[6,8,12,2,1,1,10,1,0,0,0,0,8,2,1,10,1,1,0,0,0,0,0,0,0,0,0,0,0,0,0,0,0,0,0],"split_type":[0,0,0,0,0,0,0,0,0,0,0,0,0,0,0,0,0,0,0,0,0,0,0,0,0,0,0,0,0,0,0,0,0,0,0],"sum_hessian":[1.261E3,1.232E3,2.9E1,1.227E3,5E0,1.6E1,1.3E1,1.221E3,6E0,1E0,4E0,2E0,1.4E1,8E0,5E0,3.12E2,9.09E2,2E0,4E0,1E0,1E0,1.3E1,1E0,7E0,1E0,3E0,2E0,9E0,3.03E2,2.4E1,8.85E2,1E0,1E0,2E0,5E0],"tree_param":{"num_deleted":"0","num_feature":"20","num_nodes":"35","size_leaf_vector":"1"}},{"base_weights":[7.221384E-2,-4.6909186E-1,2.9505852E-1,-2.1299978E-1,-2.7822313E0,-2.2405623E-1,5.796866E-1,4.892247E0,-3.074671E-1,-3.619462E0,3.1324916E0,-2.3256989E0,2.4437563E-2,6.292725E-1,-5.129545E-1,1.4012337E-3,5.8650917E-1,-3.757429E-1,5.214394E0,-4.0436673E0,4.7654524E-1,5.4853195E-1,-2.645E-1,-3.1309583E0,2.809946E0,-4.1516066E0,1.7844495E-1,6.985409E-1,-2.9165444E0,-7.334742E-2,7.389585E-2,6.4566845E-1,7.4376106E-2,-4.6299526E-1,1.0712462E-1,-5.456028E-2,1.4885283E-2,-4.1901922E-1,7.966604E-2,-2.9515807E-2,4.9784017E-1,-2.2091275E-2,-6.7352504E-1,5.2175283E-2,-1.5121208E-1,7.6014996E-2,-3.1166872E-1,-5.557076E-1,3.0936536E-1],"categories":[],"categories_nodes":[],"categories_segments":[],"categories_sizes":[],"default_left":[0,0,0,0,0,0,0,0,0,0,0,0,0,0,0,0,0,0,0,0,0,0,0,0,0,0,0,0,0,0,0,0,0,0,0,0,0,0,0,0,0,0,0,0,0,0,0,0,0],"id":14,"left_children":[1,3,5,7,9,11,13,15,17,19,21,23,25,27,-1,-1,-1,29,31,33,-1,-1,35,37,39,41,43,45,47,-1,-1,-1,-1,-1,-1,-1,-1,-1,-1,-1,-1,-1,-1,-1,-1,-1,-1,-1,-1],"loss_changes":[1.49716E2,2.1384775E2,1.300062E2,1.5920946E2,1.8960953E2,1.6299734E2,1.6402731E2,2.839241E1,1.233563E2,1.3309155E2,4.1413536E1,1.452702E2,1.808205E2,1.4056316E2,0E0,0E0,0E0,1.27747574E2,1.7413078E1,9.7922516E1,0E0,0E0,4.2979842E-1,1.239859E2,3.5135815E1,1.000672E2,1.5807317E2,1.3258817E2,1.9176291E2,0E0,0E0,0E0,0E0,0E0,0E0,0E0,0E0,0E0,0E0,0E0,0E0,0E0,0E0,0E0,0E0,0E0,0E0,0E0,0E0],"parents":[2147483647,0,0,1,1,2,2,3,3,4,4,5,5,6,6,7,7,8,8,9,9,10,10,11,11,12,12,13,13,17,17,18,18,19,19,22,22,23,23,24,24,25,25,26,26,27,27,28,28],"right_children":[2,4,6,8,10,12,14,16,18,20,22,24,26,28,-1,-1,-1,30,32,34,-1,-1,36,38,40,42,44,46,48,-1,-1,-1,-1,-1,-1,-1,-1,-1,-1,-1,-1,-1,-1,-1,-1,-1,-1,-1,-1],"split_conditions":[-7.047137E-1,-8.332295E-1,-3.430403E-1,-1.697054E0,1.288351E0,-1.1398926E0,1.6830522E0,-7.372136E-1,1.7054883E0,1.4162568E0,-3.67988E-1,1.2730778E0,-1.5987289E0,1.6367781E0,-5.129545E-1,1.4012337E-3,5.8650917E-1,9.580753E-1,-3.9154878E-1,1.3033024E0,4.7654524E-1,5.4853195E-1,-1.0828785E0,1.3467407E0,-4.78753E-1,-8.030842E-1,1.321744E0,1.7370863E0,4.3728706E-1,-7.334742E-2,7.389585E-2,6.4566845E-1,7.4376106E-2,-4.6299526E-1,1.0712462E-1,-5.456028E-2,1.4885283E-2,-4.1901922E-1,7.966604E-2,-2.9515807E-2,4.9784017E-1,-2.2091275E-2,-6.7352504E-1,5.2175283E-2,-1.5121208E-1,7.6014996E-2,-3.1166872E-1,-5.557076E-1,3.0936536E-1],"split_indices":[13,13,7,7,9,2,8,0,10,1,1,12,10,7,0,0,0,8,0,8,0,0,0,1,5,3,12,13,2,0,0,0,0,0,0,0,0,0,0,0,0,0,0,0,0,0,0,0,0],"split_type":[0,0,0,0,0,0,0,0,0,0,0,0,0,0,0,0,0,0,0,0,0,0,0,0,0,0,0,0,0,0,0,0,0,0,0,0,0,0,0,0,0,0,0,0,0,0,0,0,0],"sum_hessian":[1.239E3,3.61E2,8.78E2,3.26E2,3.5E1,3.11E2,5.67E2,5E0,3.21E2,3.1E1,4E0,3.2E1,2.79E2,5.63E2,4E0,1E0,4E0,3.18E2,3E0,3E1,1E0,2E0,2E0,2.8E1,4E0,9E0,2.7E2,5.53E2,1E1,2.41E2,7.7E1,2E0,1E0,2.7E1,3E0,1E0,1E0,2.2E1,6E0,2E0,2E0,4E0,5E0,2.25E2,4.5E1,5.45E2,8E0,7E0,3E0],"tree_param":{"num_deleted":"0","num_feature":"20","num_nodes":"49","size_leaf_vector":"1"}},{"base_weights":[-2.5709238E-2,-9.9202776E-1,1.106121E-1,-1.4112108E0,3.042373E0,2.7104053E0,1.0516289E-2,-2.0532503E0,1.8310356E0,-4.5563626E-1,4.5618987E0,4.170573E0,4.036641E-1,-2.1332496E-1,6.426897E-1,9.65307E-1,-2.8663273E0,2.7764504E0,-5.712351E-1,-2.6983535E-1,5.3917828E0,1.8990339E0,7.387979E-1,5.560378E0,-1.0985159E0,-9.0692663E-1,2.3839772E-1,1.4457552E0,-2.756267E-1,-4.711239E-1,2.9038328E-1,-4.0605226E-1,-4.96645E-3,-4.2354208E-1,3.689409E-1,5.8214206E-1,3.3288386E-2,-4.10429E-1,5.000935E-1,7.925806E-2,6.8854505E-1,-3.9038876E-1,3.2926276E-1,-1.3289022E-1,7.7527754E-2,6.1131597E-2,-8.082573E-2,4.9613774E-2,3.561287E-1,3.0054012E-2,-3.307955E-1],"categories":[],"categories_nodes":[],"categories_segments":[],"categories_sizes":[],"default_left":[0,0,0,0,0,0,0,0,0,0,0,0,0,0,0,0,0,0,0,0,0,0,0,0,0,0,0,0,0,0,0,0,0,0,0,0,0,0,0,0,0,0,0,0,0,0,0,0,0,0,0],"id":15,"left_children":[1,3,5,7,9,11,13,15,17,-1,19,21,23,25,27,29,31,33,-1,-1,35,37,-1,39,41,43,45,47,49,-1,-1,-1,-1,-1,-1,-1,-1,-1,-1,-1,-1,-1,-1,-1,-1,-1,-1,-1,-1,-1,-1],"loss_changes":[1.6622105E2,2.681132E2,2.8778412E2,2.993539E2,1.9398276E2,1.3641391E2,1.5098302E2,2.9483087E2,1.8701917E2,0E0,9.28761E1,1.6868158E2,1.3779547E2,2.471089E2,2.0615213E2,2.99788E2,3.1598096E2,1.5646019E2,0E0,0E0,2.4144073E1,3.1847278E2,0E0,1.981343E1,1.8531711E2,2.2179337E2,1.870655E2,2.97566E2,2.2986777E2,0E0,0E0,0E0,0E0,0E0,0E0,0E0,0E0,0E0,0E0,0E0,0E0,0E0,0E0,0E0,0E0,0E0,0E0,0E0,0E0,0E0,0E0],"parents":[2147483647,0,0,1,1,2,2,3,3,4,4,5,5,6,6,7,7,8,8,10,10,11,11,12,12,13,13,14,14,15,15,16,16,17,17,20,20,21,21,23,23,24,24,25,25,26,26,27,27,28,28],"right_children":[2,4,6,8,10,12,14,16,18,-1,20,22,24,26,28,30,32,34,-1,-1,36,38,-1,40,42,44,46,48,50,-1,-1,-1,-1,-1,-1,-1,-1,-1,-1,-1,-1,-1,-1,-1,-1,-1,-1,-1,-1,-1,-1],"split_conditions":[-1.3127227E0,1.5879843E0,-1.1883026E0,1.2730778E0,-8.546002E-1,7.647176E-1,8.7406164E-1,-9.851118E-1,1.6137412E0,-4.5563626E-1,-1.6812773E0,-2.8254944E-1,-9.425251E-1,-4.243156E-1,2.1131226E-1,-1.6276908E0,9.426251E-1,-1.4874917E0,-5.712351E-1,-2.6983535E-1,1.1810094E0,4.1184512E-1,7.387979E-1,-4.78753E-1,4.8126253E-1,2.038889E0,8.6632204E-1,-3.2164395E-1,1.1757455E0,-4.711239E-1,2.9038328E-1,-4.0605226E-1,-4.96645E-3,-4.2354208E-1,3.689409E-1,5.8214206E-1,3.3288386E-2,-4.10429E-1,5.000935E-1,7.925806E-2,6.8854505E-1,-3.9038876E-1,3.2926276E-1,-1.3289022E-1,7.7527754E-2,6.1131597E-2,-8.082573E-2,4.9613774E-2,3.561287E-1,3.0054012E-2,-3.307955E-1],"split_indices":[6,3,6,12,1,9,4,13,12,0,4,9,3,13,1,13,13,13,0,0,10,5,0,5,4,15,10,1,12,0,0,0,0,0,0,0,0,0,0,0,0,0,0,0,0,0,0,0,0,0,0],"split_type":[0,0,0,0,0,0,0,0,0,0,0,0,0,0,0,0,0,0,0,0,0,0,0,0,0,0,0,0,0,0,0,0,0,0,0,0,0,0,0,0,0,0,0,0,0,0,0,0,0,0,0],"sum_hessian":[1.26E3,1.55E2,1.105E3,1.41E2,1.4E1,4E1,1.065E3,1.18E2,2.3E1,2E0,1.2E1,2.4E1,1.6E1,7.87E2,2.78E2,2.5E1,9.3E1,2.1E1,2E0,1E0,1.1E1,1.5E1,9E0,3E0,1.3E1,3.1E2,4.77E2,1.48E2,1.3E2,6E0,1.9E1,6.5E1,2.8E1,2E0,1.9E1,1E1,1E0,5E0,1E1,1E0,2E0,8E0,5E0,2.48E2,6.2E1,3.52E2,1.25E2,1.03E2,4.5E1,1.1E2,2E1],"tree_param":{"num_deleted":"0","num_feature":"20","num_nodes":"51","size_leaf_vector":"1"}},{"base_weights":[-9.293762E-2,6.776551E-1,-2.7461067E-1,9.8038924E-1,-2.497283E0,-5.1010716E-1,6.0785556E-1,4.0928823E-1,2.7506227E0,-4.931275E0,1.2959586E0,-3.2615355E-1,-3.3115592E0,-3.2716293E0,1.0268261E0,-9.249989E-1,1.2343862E0,4.4108224E0,1.0755585E-2,-5.526666E0,1.10671185E-1,-2.12988E-1,3.363858E0,-1.6447921E0,-8.19089E-2,-4.335155E0,3.4493222E0,-1.0406636E0,-4.8581314E0,1.507971E0,-1.1882839E0,-1.6926654E-1,2.9276365E-1,4.134993E-2,4.071667E-1,-1.4635533E-1,5.0470454E-1,-4.5108062E-1,1.705669E-1,-6.5584254E-1,-2.4524657E-2,3.9465758E-1,1.4656147E-1,-2.6839274E-1,-2.4740307E-2,4.084118E-2,-1.2535208E-1,-2.076567E-1,-5.5966675E-1,6.213211E-1,1.1011245E-1,7.017311E-2,-3.8296884E-1,-1.5331578E-1,-5.796105E-1,-5.828699E-2,2.1028283E-1,-2.1156132E-1,4.7988138E-1],"categories":[],"categories_nodes":[],"categories_segments":[],"categories_sizes":[],"default_left":[0,0,0,0,0,0,0,0,0,0,0,0,0,0,0,0,0,0,0,0,0,0,0,0,0,0,0,0,0,0,0,0,0,0,0,0,0,0,0,0,0,0,0,0,0,0,0,0,0,0,0,0,0,0,0,0,0,0,0],"id":16,"left_children":[1,3,5,7,9,11,13,15,17,19,21,23,25,27,29,31,33,35,37,39,-1,-1,41,43,45,47,49,51,53,55,57,-1,-1,-1,-1,-1,-1,-1,-1,-1,-1,-1,-1,-1,-1,-1,-1,-1,-1,-1,-1,-1,-1,-1,-1,-1,-1,-1,-1],"loss_changes":[1.7462102E2,2.3120491E2,2.0999814E2,2.1926834E2,2.002778E2,4.0964374E2,3.4956747E2,1.8389412E2,2.4103503E2,5.2850983E1,7.092322E1,2.4109601E2,3.5405328E2,6.92724E1,2.0748915E2,1.9423796E2,2.3821228E2,1.3072119E2,1.6863072E2,6.3781433E1,0E0,0E0,8.52684E-1,1.6922888E2,3.641487E2,1.10895386E2,3.858957E1,5.1283226E1,2.8538483E1,1.9898221E2,2.0447282E2,0E0,0E0,0E0,0E0,0E0,0E0,0E0,0E0,0E0,0E0,0E0,0E0,0E0,0E0,0E0,0E0,0E0,0E0,0E0,0E0,0E0,0E0,0E0,0E0,0E0,0E0,0E0,0E0],"parents":[2147483647,0,0,1,1,2,2,3,3,4,4,5,5,6,6,7,7,8,8,9,9,10,10,11,11,12,12,13,13,14,14,15,15,16,16,17,17,18,18,19,19,22,22,23,23,24,24,25,25,26,26,27,27,28,28,29,29,30,30],"right_children":[2,4,6,8,10,12,14,16,18,20,22,24,26,28,30,32,34,36,38,40,-1,-1,42,44,46,48,50,52,54,56,58,-1,-1,-1,-1,-1,-1,-1,-1,-1,-1,-1,-1,-1,-1,-1,-1,-1,-1,-1,-1,-1,-1,-1,-1,-1,-1,-1,-1],"split_conditions":[-1.0556176E0,1.3865887E0,1.0127246E0,7.4394363E-1,4.4303235E-1,8.0242604E-1,-1.40642E0,-4.832557E-1,7.5122197E-3,-1.1079674E0,-5.0902075E-1,-1.1326643E0,1.0935962E0,-6.0344648E-2,1.198492E0,1.1757455E0,1.0681589E0,-1.4522287E0,-9.472882E-1,1.3945227E0,1.10671185E-1,-2.12988E-1,4.1184512E-1,-3.6589935E-1,7.0897835E-1,-5.997081E-1,-4.78753E-1,8.1827813E-1,-1.4170887E0,-8.934552E-1,1.3704102E0,-1.6926654E-1,2.9276365E-1,4.134993E-2,4.071667E-1,-1.4635533E-1,5.0470454E-1,-4.5108062E-1,1.705669E-1,-6.5584254E-1,-2.4524657E-2,3.9465758E-1,1.4656147E-1,-2.6839274E-1,-2.4740307E-2,4.084118E-2,-1.2535208E-1,-2.076567E-1,-5.5966675E-1,6.213211E-1,1.1011245E-1,7.017311E-2,-3.8296884E-1,-1.5331578E-1,-5.796105E-1,-5.828699E-2,2.1028283E-1,-2.1156132E-1,4.7988138E-1],"split_indices":[4,13,13,10,1,13,10,6,6,4,2,1,10,8,10,12,2,12,1,18,0,0,5,13,10,1,5,0,9,9,12,0,0,0,0,0,0,0,0,0,0,0,0,0,0,0,0,0,0,0,0,0,0,0,0,0,0,0,0],"split_type":[0,0,0,0,0,0,0,0,0,0,0,0,0,0,0,0,0,0,0,0,0,0,0,0,0,0,0,0,0,0,0,0,0,0,0,0,0,0,0,0,0,0,0,0,0,0,0,0,0,0,0,0,0,0,0,0,0,0,0],"sum_hessian":[1.245E3,2.37E2,1.008E3,2.17E2,2E1,7.96E2,2.12E2,1.65E2,5.2E1,1.2E1,8E0,7.48E2,4.8E1,2E1,1.92E2,6.3E1,1.02E2,3.2E1,2E1,1.1E1,1E0,3E0,5E0,1.16E2,6.32E2,4.2E1,6E0,9E0,1.1E1,1.58E2,3.4E1,5.3E1,1E1,8E1,2.2E1,3E0,2.9E1,5E0,1.5E1,9E0,2E0,3E0,2E0,6.6E1,5E1,4.46E2,1.86E2,1.6E1,2.6E1,2E0,4E0,6E0,3E0,3E0,8E0,3.5E1,1.23E2,3E1,4E0],"tree_param":{"num_deleted":"0","num_feature":"20","num_nodes":"59","size_leaf_vector":"1"}},{"base_weights":[-5.704688E-2,7.7983505E-1,-2.483486E-1,-1.0111177E-1,1.9525055E0,2.1205562E-1,-6.735367E-1,6.1029196E-1,-2.296932E0,2.3004837E0,-2.3368053E0,4.9156708E-1,-1.088343E0,7.048095E-1,-7.16134E-1,-2.452947E-1,2.9960067E0,-2.8854709E0,2.6913414E0,-3.03221E0,2.6379347E0,1.7964892E-1,-4.013985E0,3.798793E-1,4.108378E0,-2.7490926E0,3.1828865E-1,-1.5153173E0,-2.9490203E-1,-2.0716846E-1,9.257051E-2,5.7244843E-1,5.352899E-3,-3.717436E-1,1.0619626E-1,-8.7172225E-2,4.1696033E-1,-5.6515735E-1,1.4710109E-1,-8.569915E-2,3.1483397E-1,-4.951596E-1,3.3703376E-2,1.3504341E-2,2.1794151E-1,5.4045696E-2,5.8247817E-1,5.9562236E-2,-3.7393525E-1,-5.1583076E-1,1.22347645E-1,-2.1540342E-1,7.337827E-2,-4.906403E-1,-1.7160289E-2],"categories":[],"categories_nodes":[],"categories_segments":[],"categories_sizes":[],"default_left":[0,0,0,0,0,0,0,0,0,0,0,0,0,0,0,0,0,0,0,0,0,0,0,0,0,0,0,0,0,0,0,0,0,0,0,0,0,0,0,0,0,0,0,0,0,0,0,0,0,0,0,0,0,0,0],"id":17,"left_children":[1,3,5,7,9,11,13,15,17,19,21,23,25,-1,27,29,31,33,35,37,39,-1,41,43,45,47,49,51,53,-1,-1,-1,-1,-1,-1,-1,-1,-1,-1,-1,-1,-1,-1,-1,-1,-1,-1,-1,-1,-1,-1,-1,-1,-1,-1],"loss_changes":[2.0047496E2,2.4090044E2,1.9962067E2,2.1072517E2,1.5463452E2,1.786384E2,1.7937518E2,2.0893584E2,1.0464693E2,1.7535428E2,6.2669304E1,1.6163657E2,2.0411246E2,0E0,1.7729987E2,1.6445915E2,2.1646257E2,1.0247159E2,2.4703297E1,7.9086945E1,1.5967499E2,0E0,2.6146225E1,1.7285791E2,7.0339874E1,1.3471274E2,2.4426375E2,2.6303046E2,1.9646022E2,0E0,0E0,0E0,0E0,0E0,0E0,0E0,0E0,0E0,0E0,0E0,0E0,0E0,0E0,0E0,0E0,0E0,0E0,0E0,0E0,0E0,0E0,0E0,0E0,0E0,0E0],"parents":[2147483647,0,0,1,1,2,2,3,3,4,4,5,5,6,6,7,7,8,8,9,9,10,10,11,11,12,12,14,14,15,15,16,16,17,17,18,18,19,19,20,20,22,22,23,23,24,24,25,25,26,26,27,27,28,28],"right_children":[2,4,6,8,10,12,14,16,18,20,22,24,26,-1,28,30,32,34,36,38,40,-1,42,44,46,48,50,52,54,-1,-1,-1,-1,-1,-1,-1,-1,-1,-1,-1,-1,-1,-1,-1,-1,-1,-1,-1,-1,-1,-1,-1,-1,-1,-1],"split_conditions":[-1.0613928E0,2.4108405E-1,-8.23467E-2,1.0681589E0,1.5988184E0,1.1306889E0,-1.7211074E0,1.2430805E0,8.6305594E-1,-1.4285433E0,-9.7046024E-1,1.0789047E0,-2.5212795E-1,7.048095E-1,5.466657E-1,-3.9154878E-1,-8.934552E-1,7.670858E-1,-1.5729325E0,4.1184512E-1,-1.1837271E0,1.7964892E-1,-1.3997084E0,1.3835949E0,-3.2875976E-1,-1.2141111E0,-1.3889374E0,1.2610983E0,-1.682912E0,-2.0716846E-1,9.257051E-2,5.7244843E-1,5.352899E-3,-3.717436E-1,1.0619626E-1,-8.7172225E-2,4.1696033E-1,-5.6515735E-1,1.4710109E-1,-8.569915E-2,3.1483397E-1,-4.951596E-1,3.3703376E-2,1.3504341E-2,2.1794151E-1,5.4045696E-2,5.8247817E-1,5.9562236E-2,-3.7393525E-1,-5.1583076E-1,1.22347645E-1,-2.1540342E-1,7.337827E-2,-4.906403E-1,-1.7160289E-2],"split_indices":[3,9,6,2,4,8,10,11,7,0,1,8,1,0,6,0,9,4,1,5,13,0,3,2,4,10,10,3,8,0,0,0,0,0,0,0,0,0,0,0,0,0,0,0,0,0,0,0,0,0,0,0,0,0,0],"split_type":[0,0,0,0,0,0,0,0,0,0,0,0,0,0,0,0,0,0,0,0,0,0,0,0,0,0,0,0,0,0,0,0,0,0,0,0,0,0,0,0,0,0,0,0,0,0,0,0,0,0,0,0,0,0,0],"sum_hessian":[1.25E3,2.32E2,1.018E3,1.33E2,9.9E1,4.89E2,5.29E2,1.01E2,3.2E1,9.2E1,7E0,4.03E2,8.6E1,2E0,5.27E2,7.5E1,2.6E1,2.9E1,3E0,5E0,8.7E1,2E0,5E0,3.92E2,1.1E1,3.9E1,4.7E1,1.81E2,3.46E2,2.9E1,4.6E1,1.3E1,1.3E1,2.4E1,5E0,1E0,2E0,3E0,2E0,1.1E1,7.6E1,4E0,1E0,3.46E2,4.6E1,4E0,7E0,9E0,3E1,6E0,4.1E1,1.41E2,4E1,8E0,3.38E2],"tree_param":{"num_deleted":"0","num_feature":"20","num_nodes":"55","size_leaf_vector":"1"}},{"base_weights":[9.293252E-2,4.237019E-2,2.246473E0,2.1838102E-1,-4.7131446E-1,3.5386322E0,3.8392112E-1,-8.0941993E-1,3.8208997E-1,-1.3530086E-2,-2.3465354E0,4.997545E0,7.4053615E-1,1.8197479E0,-3.301626E-1,2.2704461E-1,-2.7697291E0,-5.966993E-1,6.752631E-1,-3.0367208E0,3.5779828E-1,2.255446E0,-2.9732504E0,5.344481E-1,7.640934E-2,2.546802E-1,-4.9133053E-1,-1.4382056E0,2.814012E0,2.3259006E-1,-1.3196056E-1,-4.0611282E-1,1.4736614E-1,-1.9778875E-1,4.38306E-2,1.1304002E-1,-1.8476147E-2,-2.3050046E-2,-5.453412E-1,1.4030975E-1,-9.020113E-2,-1.2617326E-2,3.709652E-1,-3.418815E-1,2.1661615E-1,1.3541825E-2,-9.543025E-2,-3.135109E-2,-1.8437974E-1,3.7218258E-1,9.757421E-2],"categories":[],"categories_nodes":[],"categories_segments":[],"categories_sizes":[],"default_left":[0,0,0,0,0,0,0,0,0,0,0,0,0,0,0,0,0,0,0,0,0,0,0,0,0,0,0,0,0,0,0,0,0,0,0,0,0,0,0,0,0,0,0,0,0,0,0,0,0,0,0],"id":18,"left_children":[1,3,5,7,9,11,13,15,17,19,21,23,25,27,-1,29,31,33,35,37,39,41,43,-1,-1,-1,45,47,49,-1,-1,-1,-1,-1,-1,-1,-1,-1,-1,-1,-1,-1,-1,-1,-1,-1,-1,-1,-1,-1,-1],"loss_changes":[1.376482E2,1.1194512E2,6.843614E1,1.5544519E2,2.7123746E2,6.569615E1,7.4801636E1,2.5866626E2,2.2881888E2,2.8734863E2,1.855221E2,1.2072388E1,1.6826872E1,3.6439793E1,0E0,2.7574973E2,2.4710074E2,2.639017E2,2.4015488E2,1.8863248E2,3.0151376E2,2.8174984E1,1.3335248E2,0E0,0E0,0E0,1.5800654E0,7.904506E-1,9.71891E0,0E0,0E0,0E0,0E0,0E0,0E0,0E0,0E0,0E0,0E0,0E0,0E0,0E0,0E0,0E0,0E0,0E0,0E0,0E0,0E0,0E0,0E0],"parents":[2147483647,0,0,1,1,2,2,3,3,4,4,5,5,6,6,7,7,8,8,9,9,10,10,11,11,12,12,13,13,15,15,16,16,17,17,18,18,19,19,20,20,21,21,22,22,26,26,27,27,28,28],"right_children":[2,4,6,8,10,12,14,16,18,20,22,24,26,28,-1,30,32,34,36,38,40,42,44,-1,-1,-1,46,48,50,-1,-1,-1,-1,-1,-1,-1,-1,-1,-1,-1,-1,-1,-1,-1,-1,-1,-1,-1,-1,-1,-1],"split_conditions":[1.6526216E0,8.138742E-1,-2.0732697E-2,-1.3714547E0,1.0455046E0,3.2341263E-1,2.0422056E0,-1.4938332E0,-9.472882E-1,9.1876996E-1,-1.4239917E0,1.7079195E0,1.6664461E0,-7.8450125E-1,-3.301626E-1,4.1184512E-1,1.3024433E0,-2.0732697E-2,5.227473E-1,8.6632204E-1,1.734056E-1,-1.0435281E0,1.3756233E0,5.344481E-1,7.640934E-2,2.546802E-1,5.227473E-1,-1.7119645E0,-7.2223586E-1,2.3259006E-1,-1.3196056E-1,-4.0611282E-1,1.4736614E-1,-1.9778875E-1,4.38306E-2,1.1304002E-1,-1.8476147E-2,-2.3050046E-2,-5.453412E-1,1.4030975E-1,-9.020113E-2,-1.2617326E-2,3.709652E-1,-3.418815E-1,2.1661615E-1,1.3541825E-2,-9.543025E-2,-3.135109E-2,-1.8437974E-1,3.7218258E-1,9.757421E-2],"split_indices":[6,10,9,10,1,13,16,10,1,10,8,6,6,4,0,5,5,9,3,10,6,13,9,0,0,0,3,1,12,0,0,0,0,0,0,0,0,0,0,0,0,0,0,0,0,0,0,0,0,0,0],"split_type":[0,0,0,0,0,0,0,0,0,0,0,0,0,0,0,0,0,0,0,0,0,0,0,0,0,0,0,0,0,0,0,0,0,0,0,0,0,0,0,0,0,0,0,0,0,0,0,0,0,0,0],"sum_hessian":[1.264E3,1.236E3,2.8E1,9.21E2,3.15E2,1.6E1,1.2E1,1.26E2,7.95E2,2.54E2,6.1E1,1E1,6E0,9E0,3E0,8.3E1,4.3E1,1.83E2,6.12E2,2.7E1,2.27E2,7E0,5.4E1,9E0,1E0,2E0,4E0,2E0,7E0,3.5E1,4.8E1,3.3E1,1E1,7.8E1,1.05E2,4E2,2.12E2,1.3E1,1.4E1,1.24E2,1.03E2,3E0,4E0,5E1,4E0,2E0,2E0,1E0,1E0,4E0,3E0],"tree_param":{"num_deleted":"0","num_feature":"20","num_nodes":"51","size_leaf_vector":"1"}},{"base_weights":[3.797883E-2,9.298051E-1,-8.751821E-2,3.943233E-1,3.2797134E0,-1.2886522E0,4.7756355E-2,3.8505206E0,-1.2912516E-1,4.4509945E0,-1.037311E0,-4.149281E-1,-3.3941977E0,1.0142819E-2,5.4035497E-1,5.4187927E0,1.408865E0,-2.2215414E0,7.6176584E-1,5.1500016E-1,5.5157146E0,-5.7410246E-1,1.9923794E0,-3.3149378E0,4.0718287E-1,1.8857629E0,-4.888255E0,4.4724286E-2,-4.891994E0,9.3626976E-4,6.0188E-1,-1.7516077E-1,2.1105908E-1,-3.1478593E-1,1.801092E-1,5.8893037E-1,4.144046E-2,3.3853588E-1,-1.7665187E-1,6.066312E-1,-1.9222188E-1,3.305123E-1,-1.6292973E-1,3.453487E-1,-4.8988554E-1,-4.2277183E-2,3.4015048E-1,-1.4027785E-1,4.1394433E-1,-2.88443E-1,-6.670201E-1,2.370785E-1,-1.53958E-3,-1.6377209E-1,-6.923269E-1],"categories":[],"categories_nodes":[],"categories_segments":[],"categories_sizes":[],"default_left":[0,0,0,0,0,0,0,0,0,0,0,0,0,0,0,0,0,0,0,0,0,0,0,0,0,0,0,0,0,0,0,0,0,0,0,0,0,0,0,0,0,0,0,0,0,0,0,0,0,0,0,0,0,0,0],"id":19,"left_children":[1,3,5,7,9,11,13,15,17,19,21,23,25,27,-1,29,31,33,35,37,39,-1,41,43,45,47,49,51,53,-1,-1,-1,-1,-1,-1,-1,-1,-1,-1,-1,-1,-1,-1,-1,-1,-1,-1,-1,-1,-1,-1,-1,-1,-1,-1],"loss_changes":[1.424456E2,1.9626501E2,1.8139244E2,2.338764E2,1.5125406E2,2.0647394E2,2.0220132E2,5.7461716E1,2.1233728E2,9.3546295E1,1.1119387E2,1.9446431E2,2.6954062E2,1.6940282E2,0E0,3.2400635E1,2.1439207E1,1.3236162E2,1.400481E2,4.5272953E1,8.537628E1,0E0,2.9156689E1,2.0988942E2,1.6048776E2,6.509729E1,7.3598755E1,1.3876074E2,3.4933884E1,0E0,0E0,0E0,0E0,0E0,0E0,0E0,0E0,0E0,0E0,0E0,0E0,0E0,0E0,0E0,0E0,0E0,0E0,0E0,0E0,0E0,0E0,0E0,0E0,0E0,0E0],"parents":[2147483647,0,0,1,1,2,2,3,3,4,4,5,5,6,6,7,7,8,8,9,9,10,10,11,11,12,12,13,13,15,15,16,16,17,17,18,18,19,19,20,20,22,22,23,23,24,24,25,25,26,26,27,27,28,28],"right_children":[2,4,6,8,10,12,14,16,18,20,22,24,26,28,-1,30,32,34,36,38,40,-1,42,44,46,48,50,52,54,-1,-1,-1,-1,-1,-1,-1,-1,-1,-1,-1,-1,-1,-1,-1,-1,-1,-1,-1,-1,-1,-1,-1,-1,-1,-1],"split_conditions":[-1.3065118E0,2.038889E0,-1.3298165E0,-1.3722076E0,1.1460441E0,7.26461E-1,1.6624073E0,7.9074275E-1,-2.1569684E-1,-1.5949613E0,-7.804814E-1,-8.888897E-1,-6.698858E-1,1.7261914E0,5.4035497E-1,-1.697054E0,-1.0828785E0,1.1895026E0,-1.504361E0,-1.3190068E0,1.6664461E0,-5.7410246E-1,8.1827813E-1,-1.1115654E0,7.40208E-1,9.12755E-1,-2.842402E-1,-1.2425442E0,-4.0909242E-2,9.3626976E-4,6.0188E-1,-1.7516077E-1,2.1105908E-1,-3.1478593E-1,1.801092E-1,5.8893037E-1,4.144046E-2,3.3853588E-1,-1.7665187E-1,6.066312E-1,-1.9222188E-1,3.305123E-1,-1.6292973E-1,3.453487E-1,-4.8988554E-1,-4.2277183E-2,3.4015048E-1,-1.4027785E-1,4.1394433E-1,-2.88443E-1,-6.670201E-1,2.370785E-1,-1.53958E-3,-1.6377209E-1,-6.923269E-1],"split_indices":[4,15,9,8,10,10,12,13,8,4,6,8,6,4,0,7,0,6,9,10,6,0,0,12,6,4,12,9,12,0,0,0,0,0,0,0,0,0,0,0,0,0,0,0,0,0,0,0,0,0,0,0,0,0,0],"split_type":[0,0,0,0,0,0,0,0,0,0,0,0,0,0,0,0,0,0,0,0,0,0,0,0,0,0,0,0,0,0,0,0,0,0,0,0,0,0,0,0,0,0,0,0,0,0,0,0,0,0,0,0,0,0,0],"sum_hessian":[1.271E3,1.56E2,1.115E3,1.28E2,2.8E1,1.12E2,1.003E3,1.6E1,1.12E2,2.2E1,6E0,8E1,3.2E1,9.97E2,6E0,9E0,7E0,3.3E1,7.9E1,5E0,1.7E1,2E0,4E0,1.7E1,6.3E1,7E0,2.5E1,9.91E2,6E0,1E0,8E0,1E0,6E0,2.7E1,6E0,4E0,7.5E1,2E0,3E0,1.6E1,1E0,3E0,1E0,3E0,1.4E1,5E1,1.3E1,3E0,4E0,1.3E1,1.2E1,2.4E1,9.67E2,3E0,3E0],"tree_param":{"num_deleted":"0","num_feature":"20","num_nodes":"55","size_leaf_vector":"1"}},{"base_weights":[9.251822E-2,-1.6679536E-1,6.0372806E-1,-2.9172337E-1,1.0943856E0,-5.651271E-1,6.753899E-1,-2.1276899E-1,-3.4262342E0,2.1496058E0,-6.3044614E-1,2.067553E0,4.5157096E-1,-7.0057493E-1,1.0128107E-1,7.588216E-2,-5.048433E0,5.307273E-1,1.1789757E0,-2.1768892E0,3.2197974E0,2.4942303E0,-4.4228193E-1,-1.36445E-2,1.3105352E0,2.7856714E-1,-9.896043E-2,6.1099928E-2,-7.3814824E-2,-2.797518E-1,1.7847459E-1,-3.1246187E-3,-5.957808E-1,-2.9637572E-1,1.8964733E-1,-3.472822E-1,5.2509617E-2,-1.8496065E-1,4.932428E-1,4.6306416E-1,8.64894E-2,-6.2221464E-2,2.055742E-1,1.7916432E-1,-3.1572545E-1],"categories":[],"categories_nodes":[],"categories_segments":[],"categories_sizes":[],"default_left":[0,0,0,0,0,0,0,0,0,0,0,0,0,0,0,0,0,0,0,0,0,0,0,0,0,0,0,0,0,0,0,0,0,0,0,0,0,0,0,0,0,0,0,0,0],"id":20,"left_children":[1,3,5,7,9,-1,11,13,15,17,19,21,23,25,27,29,31,-1,33,35,37,39,-1,41,43,-1,-1,-1,-1,-1,-1,-1,-1,-1,-1,-1,-1,-1,-1,-1,-1,-1,-1,-1,-1],"loss_changes":[1.7017987E2,1.345577E2,1.9745854E2,1.913181E2,1.4150117E2,0E0,1.3242792E2,1.1619314E2,1.0832451E2,1.4085936E2,1.856346E2,1.7441998E2,1.4787115E2,3.020221E2,1.9812805E2,3.93646E1,5.9126404E1,0E0,1.1857192E2,7.885859E1,8.726119E1,1.9092715E2,0E0,3.0478653E2,2.850902E2,0E0,0E0,0E0,0E0,0E0,0E0,0E0,0E0,0E0,0E0,0E0,0E0,0E0,0E0,0E0,0E0,0E0,0E0,0E0,0E0],"parents":[2147483647,0,0,1,1,2,2,3,3,4,4,6,6,7,7,8,8,9,9,10,10,11,11,12,12,13,13,14,14,15,15,16,16,18,18,19,19,20,20,21,21,23,23,24,24],"right_children":[2,4,6,8,10,-1,12,14,16,18,20,22,24,26,28,30,32,-1,34,36,38,40,-1,42,44,-1,-1,-1,-1,-1,-1,-1,-1,-1,-1,-1,-1,-1,-1,-1,-1,-1,-1,-1,-1],"split_conditions":[6.4544576E-1,1.4628956E0,-1.7334522E0,1.3756233E0,4.420601E-1,-5.651271E-1,-1.2191669E0,-2.9752722E-1,-6.170342E-1,-1.2557108E0,1.0686766E0,1.5552888E0,1.3992705E0,-1.4170887E0,5.021741E-1,-1.1558363E0,-1.4035624E0,5.307273E-1,-1.4581105E0,6.233276E-1,8.516777E-1,-2.6809344E-1,-4.4228193E-1,1.0052865E0,1.2981131E0,2.7856714E-1,-9.896043E-2,6.1099928E-2,-7.3814824E-2,-2.797518E-1,1.7847459E-1,-3.1246187E-3,-5.957808E-1,-2.9637572E-1,1.8964733E-1,-3.472822E-1,5.2509617E-2,-1.8496065E-1,4.932428E-1,4.6306416E-1,8.64894E-2,-6.2221464E-2,2.055742E-1,1.7916432E-1,-3.1572545E-1],"split_indices":[0,9,3,9,7,0,7,7,4,0,1,1,19,9,3,1,12,0,7,3,7,4,0,4,4,0,0,0,0,0,0,0,0,0,0,0,0,0,0,0,0,0,0,0,0],"split_type":[0,0,0,0,0,0,0,0,0,0,0,0,0,0,0,0,0,0,0,0,0,0,0,0,0,0,0,0,0,0,0,0,0,0,0,0,0,0,0,0,0,0,0,0,0],"sum_hessian":[1.282E3,8.51E2,4.31E2,7.75E2,7.6E1,4E0,4.27E2,7.57E2,1.8E1,4.7E1,2.9E1,5.8E1,3.69E2,2.96E2,4.61E2,6E0,1.2E1,1E1,3.7E1,2.1E1,8E0,5.5E1,3E0,2.4E2,1.29E2,2.2E1,2.74E2,2.87E2,1.74E2,2E0,4E0,2E0,1E1,5E0,3.2E1,1.4E1,7E0,2E0,6E0,2.3E1,3.2E1,1.86E2,5.4E1,1.17E2,1.2E1],"tree_param":{"num_deleted":"0","num_feature":"20","num_nodes":"45","size_leaf_vector":"1"}},{"base_weights":[-2.582413E-2,-4.8552297E-2,3.554249E0,3.6977696E-1,-2.5542626E-1,-9.665666E-2,4.338161E-1,-1.4554772E-1,1.4712638E0,-1.4165542E0,8.0006756E-2,-3.3260685E-1,3.2436903E0,-3.3096305E-1,2.3360052E0,-1.7118324E0,2.1227944E0,1.8886483E0,-1.1904858E-1,-1.9954796E-1,3.426925E-3,4.5841795E-1,-1.588699E-1,-3.3878925E-1,4.424627E-2,-3.3094853E-1,2.5687173E-1,-3.3824608E-2,-2.4438547E-1,6.663718E-1,-1.6449013E-1,2.9336715E-1,-6.093375E-2,-2.6323065E-1,1.1302141E-2],"categories":[],"categories_nodes":[],"categories_segments":[],"categories_sizes":[],"default_left":[0,0,0,0,0,0,0,0,0,0,0,0,0,0,0,0,0,0,0,0,0,0,0,0,0,0,0,0,0,0,0,0,0,0,0],"id":21,"left_children":[1,3,5,7,9,-1,-1,11,13,15,17,19,21,23,25,27,29,31,33,-1,-1,-1,-1,-1,-1,-1,-1,-1,-1,-1,-1,-1,-1,-1,-1],"loss_changes":[1.0318509E2,1.090501E2,3.254448E1,2.3691309E2,3.2844556E2,0E0,0E0,1.8176543E2,2.0804828E2,2.0115625E2,2.360378E2,1.6539688E2,1.0444934E2,1.0552856E2,1.26740875E2,1.7513513E2,2.675934E2,1.7146706E2,3.4499924E2,0E0,0E0,0E0,0E0,0E0,0E0,0E0,0E0,0E0,0E0,0E0,0E0,0E0,0E0,0E0,0E0],"parents":[2147483647,0,0,1,1,2,2,3,3,4,4,7,7,8,8,9,9,10,10,11,11,12,12,13,13,14,14,15,15,16,16,17,17,18,18],"right_children":[2,4,6,8,10,-1,-1,12,14,16,18,20,22,24,26,28,30,32,34,-1,-1,-1,-1,-1,-1,-1,-1,-1,-1,-1,-1,-1,-1,-1,-1],"split_conditions":[2.0144668E0,-5.562052E-1,-8.922349E-1,6.2961245E-1,-1.4443046E-2,-9.665666E-2,4.338161E-1,-6.224968E-1,-3.8157254E-1,1.4607315E0,-1.3643844E0,-1.1508973E0,3.0473787E-1,-9.518716E-1,-1.631128E0,-5.436626E-1,-3.8157254E-1,1.2130941E0,-1.1326643E0,-1.9954796E-1,3.426925E-3,4.5841795E-1,-1.588699E-1,-3.3878925E-1,4.424627E-2,-3.3094853E-1,2.5687173E-1,-3.3824608E-2,-2.4438547E-1,6.663718E-1,-1.6449013E-1,2.9336715E-1,-6.093375E-2,-2.6323065E-1,1.1302141E-2],"split_indices":[2,3,3,6,3,0,0,3,12,10,1,7,6,10,8,8,12,3,1,0,0,0,0,0,0,0,0,0,0,0,0,0,0,0,0],"split_type":[0,0,0,0,0,0,0,0,0,0,0,0,0,0,0,0,0,0,0,0,0,0,0,0,0,0,0,0,0,0,0,0,0,0,0],"sum_hessian":[1.265E3,1.258E3,7E0,4.16E2,8.42E2,1E0,6E0,2.84E2,1.32E2,1.88E2,6.54E2,2.7E2,1.4E1,4.3E1,8.9E1,1.74E2,1.4E1,6.4E1,5.9E2,4.8E1,2.22E2,1.1E1,3E0,8E0,3.5E1,3E0,8.6E1,6.1E1,1.13E2,6E0,8E0,4.5E1,1.9E1,4.9E1,5.41E2],"tree_param":{"num_deleted":"0","num_feature":"20","num_nodes":"35","size_leaf_vector":"1"}},{"base_weights":[2.149575E-2,-4.545697E-2,1.9838293E0,-8.2633245E-1,7.784335E-2,-2.4326544E-1,2.3965163E0,-1.4223431E0,1.411031E0,2.8625393E0,-1.6349E-2,2.7458854E0,-2.5947514E-1,1.0699055E0,-2.1485324E0,-7.787311E-1,5.6729693E0,-1.295037E0,3.988394E0,-8.594309E-2,1.6664968E0,3.6869643E0,1.3391013E0,3.1810147E-1,-5.133271E-1,2.4593401E-1,-2.4141438E-1,-2.9094145E-1,3.8463128E-1,6.217943E-1,-1.6086817E-2,-4.0907976E-1,1.2005784E-1,6.195459E-1,1.13498114E-1,4.2281E-3,-1.1278603E-1,2.3312128E-1,-3.4527582E-1,-1.22630216E-1,4.2686924E-1,2.5063694E-1,-1.0240739E-1],"categories":[],"categories_nodes":[],"categories_segments":[],"categories_sizes":[],"default_left":[0,0,0,0,0,0,0,0,0,0,0,0,0,0,0,0,0,0,0,0,0,0,0,0,0,0,0,0,0,0,0,0,0,0,0,0,0,0,0,0,0,0,0],"id":22,"left_children":[1,3,5,7,9,-1,11,13,15,17,19,21,-1,23,25,27,29,31,33,35,37,39,41,-1,-1,-1,-1,-1,-1,-1,-1,-1,-1,-1,-1,-1,-1,-1,-1,-1,-1,-1,-1],"loss_changes":[1.6326855E2,1.1579553E2,8.055754E1,2.2069975E2,2.7257346E2,0E0,7.3389114E1,2.3757849E2,3.3105978E2,1.643132E2,1.17962036E2,4.2722992E1,0E0,4.0919647E2,1.2955145E2,2.4769861E2,3.9151703E1,6.0728462E1,1.6300537E2,1.2923781E2,1.4416313E2,6.525659E1,4.670205E1,0E0,0E0,0E0,0E0,0E0,0E0,0E0,0E0,0E0,0E0,0E0,0E0,0E0,0E0,0E0,0E0,0E0,0E0,0E0,0E0],"parents":[2147483647,0,0,1,1,2,2,3,3,4,4,6,6,7,7,8,8,9,9,10,10,11,11,13,13,14,14,15,15,16,16,17,17,18,18,19,19,20,20,21,21,22,22],"right_children":[2,4,6,8,10,-1,12,14,16,18,20,22,-1,24,26,28,30,32,34,36,38,40,42,-1,-1,-1,-1,-1,-1,-1,-1,-1,-1,-1,-1,-1,-1,-1,-1,-1,-1,-1,-1],"split_conditions":[1.6387972E0,-1.3127227E0,-1.631128E0,1.163943E0,-1.2159516E0,-2.4326544E-1,1.3045307E0,-9.851118E-1,5.8659995E-1,-7.367926E-1,1.5798868E0,2.7641738E-3,-2.5947514E-1,-2.1871635E-1,-1.5711521E0,6.879482E-1,1.3003967E0,1.8035996E-1,-3.8157254E-1,1.3281724E0,1.5096078E0,-1.014233E0,9.3241453E-1,3.1810147E-1,-5.133271E-1,2.4593401E-1,-2.4141438E-1,-2.9094145E-1,3.8463128E-1,6.217943E-1,-1.6086817E-2,-4.0907976E-1,1.2005784E-1,6.195459E-1,1.13498114E-1,4.2281E-3,-1.1278603E-1,2.3312128E-1,-3.4527582E-1,-1.22630216E-1,4.2686924E-1,2.5063694E-1,-1.0240739E-1],"split_indices":[6,6,8,0,6,0,3,13,10,3,7,1,0,0,3,4,1,7,12,13,0,12,12,0,0,0,0,0,0,0,0,0,0,0,0,0,0,0,0,0,0,0,0],"split_type":[0,0,0,0,0,0,0,0,0,0,0,0,0,0,0,0,0,0,0,0,0,0,0,0,0,0,0,0,0,0,0,0,0,0,0,0,0,0,0,0,0,0,0],"sum_hessian":[1.241E3,1.201E3,4E1,1.63E2,1.038E3,3E0,3.7E1,1.29E2,3.4E1,3.3E1,1.005E3,3.5E1,2E0,2.9E1,1E2,2.3E1,1.1E1,7E0,2.6E1,9.66E2,3.9E1,2E1,1.5E1,2.2E1,7E0,5E0,9.5E1,1.6E1,7E0,1E1,1E0,3E0,4E0,1.4E1,1.2E1,8.61E2,1.05E2,3.5E1,4E0,2E0,1.8E1,1E1,5E0],"tree_param":{"num_deleted":"0","num_feature":"20","num_nodes":"43","size_leaf_vector":"1"}},{"base_weights":[-5.294939E-2,8.989261E-1,-1.6843387E-1,5.6540604E0,6.016742E-1,-3.5531533E0,-1.2917185E-1,6.580782E-1,1.9159298E-1,1.6107687E-1,3.3586974E0,7.8122936E-2,-4.412244E0,-7.9211015E-1,7.401247E-2,1.0388215E0,-3.0052466E0,4.801879E0,-1.3539507E0,-4.7349986E-1,-5.9234716E-2,-1.886207E0,1.9041993E-1,1.7341454E-1,-1.8708236E0,-1.5409522E-1,1.8463026E-1,-4.011662E-1,5.7123524E-1,5.3754836E-1,2.0239972E-1,-3.7151358E-1,4.0453944E-1,-2.5555602E-1,1.0371363E-1,-1.4680597E-1,1.7326966E-1,1.0362986E-2,2.9631105E-1,-2.3188381E-1,2.9650232E-1],"categories":[],"categories_nodes":[],"categories_segments":[],"categories_sizes":[],"default_left":[0,0,0,0,0,0,0,0,0,0,0,0,0,0,0,0,0,0,0,0,0,0,0,0,0,0,0,0,0,0,0,0,0,0,0,0,0,0,0,0,0],"id":23,"left_children":[1,3,5,7,9,11,13,-1,-1,15,17,-1,19,21,23,25,27,29,31,-1,-1,33,35,37,39,-1,-1,-1,-1,-1,-1,-1,-1,-1,-1,-1,-1,-1,-1,-1,-1],"loss_changes":[1.4019821E2,1.9165732E2,1.5063808E2,1.5105347E1,1.5858952E2,5.185411E1,1.5159464E2,0E0,0E0,3.1995337E2,1.2892325E2,0E0,1.0757034E1,2.841547E2,1.669669E2,1.9032571E2,2.4225412E2,1.1427734E1,7.8773445E1,0E0,0E0,2.4724408E2,3.606405E2,1.5952364E2,9.7869644E1,0E0,0E0,0E0,0E0,0E0,0E0,0E0,0E0,0E0,0E0,0E0,0E0,0E0,0E0,0E0,0E0],"parents":[2147483647,0,0,1,1,2,2,3,3,4,4,5,5,6,6,9,9,10,10,12,12,13,13,14,14,15,15,16,16,17,17,18,18,21,21,22,22,23,23,24,24],"right_children":[2,4,6,8,10,12,14,-1,-1,16,18,-1,20,22,24,26,28,30,32,-1,-1,34,36,38,40,-1,-1,-1,-1,-1,-1,-1,-1,-1,-1,-1,-1,-1,-1,-1,-1],"split_conditions":[-1.2557108E0,-1.4339004E0,-1.6998073E0,1.2185114E-1,1.4628956E0,-1.4802444E0,-5.643812E-1,6.580782E-1,1.9159298E-1,5.9017307E-1,1.204404E0,7.8122936E-2,3.8516876E-1,-2.0732697E-2,1.5616132E0,-4.8384804E-1,1.5034213E0,5.820644E-1,-1.4285433E0,-4.7349986E-1,-5.9234716E-2,1.0010414E0,-1.5943989E-1,1.4963073E0,1.5267878E0,-1.5409522E-1,1.8463026E-1,-4.011662E-1,5.7123524E-1,5.3754836E-1,2.0239972E-1,-3.7151358E-1,4.0453944E-1,-2.5555602E-1,1.0371363E-1,-1.4680597E-1,1.7326966E-1,1.0362986E-2,2.9631105E-1,-2.3188381E-1,2.9650232E-1],"split_indices":[0,1,6,2,9,1,0,0,0,9,7,0,7,9,4,1,13,1,0,0,0,13,1,4,13,0,0,0,0,0,0,0,0,0,0,0,0,0,0,0,0],"split_type":[0,0,0,0,0,0,0,0,0,0,0,0,0,0,0,0,0,0,0,0,0,0,0,0,0,0,0,0,0,0,0,0,0,0,0,0,0,0,0,0,0],"sum_hessian":[1.273E3,1.37E2,1.136E3,7E0,1.3E2,1.2E1,1.124E3,5E0,2E0,1.13E2,1.7E1,2E0,1E1,2.63E2,8.61E2,8.9E1,2.4E1,1.3E1,4E0,9E0,1E0,1.24E2,1.39E2,8.2E2,4.1E1,2.1E1,6.8E1,2.2E1,2E0,1E1,3E0,3E0,1E0,1.01E2,2.3E1,6.7E1,7.2E1,8.01E2,1.9E1,3.8E1,3E0],"tree_param":{"num_deleted":"0","num_feature":"20","num_nodes":"41","size_leaf_vector":"1"}},{"base_weights":[7.162988E-2,2.2024158E-2,1.722771E0,4.980407E0,5.881429E-3,3.1779494E0,-8.9487547E-1,6.2234676E-1,6.256137E-2,2.1407989E-1,-3.6709514E-1,4.966815E0,1.7685613E-1,-4.650445E0,2.5031073E0,3.0211415E0,1.521495E-1,-8.7619627E-1,4.1914734E-1,5.6193037E0,4.8375988E-1,4.364113E-1,-2.241127E0,8.090544E-3,-5.4524875E-1,-2.577121E-1,4.6260366E-1,-1.4865361E-1,5.0232184E-1,3.0940166E-1,9.782849E-3,-5.065451E-2,-2.9705444E-1,-4.01587E-1,6.570751E-2,1.9412604E-1,6.1115605E-1,5.8252003E-2,1.4311981E-2,1.3999106E-1,-3.9775243E-1],"categories":[],"categories_nodes":[],"categories_segments":[],"categories_sizes":[],"default_left":[0,0,0,0,0,0,0,0,0,0,0,0,0,0,0,0,0,0,0,0,0,0,0,0,0,0,0,0,0,0,0,0,0,0,0,0,0,0,0,0,0],"id":24,"left_children":[1,3,5,7,9,11,13,-1,-1,15,17,19,21,23,25,27,29,31,33,35,37,-1,39,-1,-1,-1,-1,-1,-1,-1,-1,-1,-1,-1,-1,-1,-1,-1,-1,-1,-1],"loss_changes":[1.0390085E2,9.866229E1,1.4378214E2,1.775959E1,9.559196E1,1.2796683E2,1.9029962E2,0E0,0E0,1.3687585E2,1.7688937E2,4.1158752E1,1.1102769E2,2.7004349E1,9.820157E1,1.608874E2,1.23386536E2,2.0597505E2,1.8624594E2,1.1672913E1,1.755482E-2,0E0,4.9824192E1,0E0,0E0,0E0,0E0,0E0,0E0,0E0,0E0,0E0,0E0,0E0,0E0,0E0,0E0,0E0,0E0,0E0,0E0],"parents":[2147483647,0,0,1,1,2,2,3,3,4,4,5,5,6,6,9,9,10,10,11,11,12,12,13,13,14,14,15,15,16,16,17,17,18,18,19,19,20,20,22,22],"right_children":[2,4,6,8,10,12,14,-1,-1,16,18,20,22,24,26,28,30,32,34,36,38,-1,40,-1,-1,-1,-1,-1,-1,-1,-1,-1,-1,-1,-1,-1,-1,-1,-1,-1,-1],"split_conditions":[1.5948421E0,-1.7211074E0,-7.585212E-2,-1.0828785E0,5.783255E-1,3.7351632E-1,-5.5336404E-1,6.2234676E-1,6.256137E-2,-1.6856757E0,2.9414263E-1,-1.7135999E-1,7.960366E-2,4.1184512E-1,-4.78753E-1,-1.1094923E0,-1.6812773E0,1.3367754E0,-1.4758085E0,-1.2970573E0,-1.0828785E0,4.364113E-1,-1.0435281E0,8.090544E-3,-5.4524875E-1,-2.577121E-1,4.6260366E-1,-1.4865361E-1,5.0232184E-1,3.0940166E-1,9.782849E-3,-5.065451E-2,-2.9705444E-1,-4.01587E-1,6.570751E-2,1.9412604E-1,6.1115605E-1,5.8252003E-2,1.4311981E-2,1.3999106E-1,-3.9775243E-1],"split_indices":[3,10,4,0,8,1,1,0,0,7,7,4,10,5,5,1,4,0,13,4,0,0,13,0,0,0,0,0,0,0,0,0,0,0,0,0,0,0,0,0,0],"split_type":[0,0,0,0,0,0,0,0,0,0,0,0,0,0,0,0,0,0,0,0,0,0,0,0,0,0,0,0,0,0,0,0,0,0,0,0,0,0,0,0,0],"sum_hessian":[1.268E3,1.232E3,3.6E1,3E0,1.229E3,2.3E1,1.3E1,2E0,1E0,7.89E2,4.4E2,1.4E1,9E0,6E0,7E0,1.6E1,7.73E2,2.67E2,1.73E2,1.2E1,2E0,3E0,6E0,1E0,5E0,2E0,5E0,5E0,1.1E1,1.3E1,7.6E2,2.28E2,3.9E1,8E0,1.65E2,2E0,1E1,1E0,1E0,2E0,4E0],"tree_param":{"num_deleted":"0","num_feature":"20","num_nodes":"41","size_leaf_vector":"1"}},{"base_weights":[-7.7541664E-2,-1.4495208E-2,-1.6445867E0,-2.9341096E-1,2.758753E-1,5.743373E-1,-2.238358E0,4.5585886E-2,-1.4496126E0,1.7885693E0,6.690837E-2,-3.2416613E0,9.58082E-1,6.288597E-1,-4.989818E-1,-2.1089353E-1,-2.3319013E0,1.0447731E0,5.953514E0,2.7669137E0,-9.831268E-2,1.2629268E0,-4.372525E0,2.466912E0,-4.3907124E-1,1.3682567E-1,-7.429899E-2,7.257837E-2,-1.0733024E-1,-2.8305206E-1,1.2351737E-1,-3.542393E-1,-4.4757858E-2,2.0885368E-1,-1.0427999E-1,6.9811386E-1,-2.161366E-1,3.6336847E-2,4.7249293E-1,1.3503371E-1,-2.7040249E-2,-1.0099087E-1,5.387623E-1,-1.702888E-1,-5.9093654E-1,-1.8713303E-1,3.785389E-1],"categories":[],"categories_nodes":[],"categories_segments":[],"categories_sizes":[],"default_left":[0,0,0,0,0,0,0,0,0,0,0,0,0,0,0,0,0,0,0,0,0,0,0,0,0,0,0,0,0,0,0,0,0,0,0,0,0,0,0,0,0,0,0,0,0,0,0],"id":25,"left_children":[1,3,5,7,9,-1,11,13,15,17,19,21,23,25,27,29,31,33,35,37,39,41,43,45,-1,-1,-1,-1,-1,-1,-1,-1,-1,-1,-1,-1,-1,-1,-1,-1,-1,-1,-1,-1,-1,-1,-1],"loss_changes":[1.2772022E2,1.00831154E2,2.3219363E2,2.4895352E2,1.9270319E2,0E0,1.5383472E2,1.5658878E2,1.5688696E2,2.2302235E2,2.3982648E2,1.8890887E2,1.0767656E2,2.4242981E2,1.8014804E2,2.3457376E2,1.9001492E2,1.4162961E2,1.0681833E2,1.4417465E2,1.2675916E2,8.043903E1,1.08918335E2,6.428244E1,0E0,0E0,0E0,0E0,0E0,0E0,0E0,0E0,0E0,0E0,0E0,0E0,0E0,0E0,0E0,0E0,0E0,0E0,0E0,0E0,0E0,0E0,0E0],"parents":[2147483647,0,0,1,1,2,2,3,3,4,4,6,6,7,7,8,8,9,9,10,10,11,11,12,12,13,13,14,14,15,15,16,16,17,17,18,18,19,19,20,20,21,21,22,22,23,23],"right_children":[2,4,6,8,10,-1,12,14,16,18,20,22,24,26,28,30,32,34,36,38,40,42,44,46,-1,-1,-1,-1,-1,-1,-1,-1,-1,-1,-1,-1,-1,-1,-1,-1,-1,-1,-1,-1,-1,-1,-1],"split_conditions":[1.6824403E0,6.556403E-2,-1.5497605E0,-3.550446E-1,-1.3329495E0,5.743373E-1,5.337112E-1,4.1184512E-1,-3.8157254E-1,-1.3784626E0,1.6157252E-1,-9.1690063E-1,9.2049676E-1,5.691173E-1,-5.0902075E-1,-6.64044E-1,-1.0359379E-1,-1.4694887E0,1.1412404E0,1.1356827E-1,-1.3589759E0,-1.5943989E-1,-2.1760108E-1,-5.2757114E-1,-4.3907124E-1,1.3682567E-1,-7.429899E-2,7.257837E-2,-1.0733024E-1,-2.8305206E-1,1.2351737E-1,-3.542393E-1,-4.4757858E-2,2.0885368E-1,-1.0427999E-1,6.9811386E-1,-2.161366E-1,3.6336847E-2,4.7249293E-1,1.3503371E-1,-2.7040249E-2,-1.0099087E-1,5.387623E-1,-1.702888E-1,-5.9093654E-1,-1.8713303E-1,3.785389E-1],"split_indices":[0,3,1,3,7,0,13,5,12,7,3,12,3,10,2,4,3,7,13,3,13,1,10,12,0,0,0,0,0,0,0,0,0,0,0,0,0,0,0,0,0,0,0,0,0,0,0],"split_type":[0,0,0,0,0,0,0,0,0,0,0,0,0,0,0,0,0,0,0,0,0,0,0,0,0,0,0,0,0,0,0,0,0,0,0,0,0,0,0,0,0,0,0,0,0,0,0],"sum_hessian":[1.292E3,1.243E3,4.9E1,6.34E2,6.09E2,3E0,4.6E1,4.91E2,1.43E2,7.3E1,5.36E2,3.5E1,1.1E1,2.37E2,2.54E2,6E1,8.3E1,6.3E1,1E1,3E1,5.06E2,7E0,2.8E1,9E0,2E0,1.54E2,8.3E1,8.1E1,1.73E2,2.1E1,3.9E1,5E1,3.3E1,4.2E1,2.1E1,9E0,1E0,1.4E1,1.6E1,5.3E1,4.53E2,5E0,2E0,1.1E1,1.7E1,2E0,7E0],"tree_param":{"num_deleted":"0","num_feature":"20","num_nodes":"47","size_leaf_vector":"1"}},{"base_weights":[7.881313E-2,-6.2190793E-2,7.854955E-1,-2.9289582E-1,4.425788E-1,1.5653672E0,-1.3253695E-1,-5.3718436E-1,5.8278286E-1,-4.1757077E-1,1.0922482E0,2.0437713E-1,3.13181E0,2.2250266E0,-8.223217E-1,-5.9411955E-1,2.6422787E0,4.509984E0,5.2149384E-3,-3.1719172E0,1.4617403E-1,1.5440059E0,-9.7278637E-1,-2.0153112E0,1.4200963E0,-8.908206E-1,3.7773485E0,3.4849062E0,-1.7154701E0,1.5537043E0,-1.9031353E0,-4.4973347E-2,-2.8381652E-1,3.2525343E-1,1.3417149E-2,6.2303823E-1,-5.4267522E-2,1.4284389E-1,-1.22575186E-1,1.3511099E-1,-4.1440782E-1,1.8994518E-1,-3.9490234E-2,1.8876944E-1,-1.316543E-1,-4.602509E-1,7.313694E-2,-3.5825843E-1,2.2367474E-2,6.4259857E-1,6.853868E-2,2.3951821E-1,-4.7756192E-1,1.252477E-1,4.4629556E-1,9.767787E-2,4.7641775E-1,-2.4521816E-1,9.840436E-2,-3.1164345E-1,2.643554E-1,4.945123E-2,-2.7994928E-1],"categories":[],"categories_nodes":[],"categories_segments":[],"categories_sizes":[],"default_left":[0,0,0,0,0,0,0,0,0,0,0,0,0,0,0,0,0,0,0,0,0,0,0,0,0,0,0,0,0,0,0,0,0,0,0,0,0,0,0,0,0,0,0,0,0,0,0,0,0,0,0,0,0,0,0,0,0,0,0,0,0,0,0],"id":26,"left_children":[1,3,5,7,9,11,13,15,17,19,21,23,25,27,29,31,33,35,37,39,41,43,45,47,49,51,53,55,57,59,61,-1,-1,-1,-1,-1,-1,-1,-1,-1,-1,-1,-1,-1,-1,-1,-1,-1,-1,-1,-1,-1,-1,-1,-1,-1,-1,-1,-1,-1,-1,-1,-1],"loss_changes":[1.24007225E2,1.2100774E2,1.4840863E2,1.5283678E2,1.8262906E2,2.3813416E2,1.5794598E2,1.0258092E2,3.5381967E2,2.1940118E2,1.7502052E2,1.6747153E2,1.3839664E2,1.15198364E2,1.9555997E2,1.766045E2,1.4869469E1,1.7723279E2,2.4176688E2,1.11129776E2,1.1269164E2,1.5290527E2,2.1367696E2,7.8001595E1,1.427107E2,1.1356216E2,7.230835E1,4.9892227E1,1.4345629E1,1.3039243E2,1.1314014E2,0E0,0E0,0E0,0E0,0E0,0E0,0E0,0E0,0E0,0E0,0E0,0E0,0E0,0E0,0E0,0E0,0E0,0E0,0E0,0E0,0E0,0E0,0E0,0E0,0E0,0E0,0E0,0E0,0E0,0E0,0E0,0E0],"parents":[2147483647,0,0,1,1,2,2,3,3,4,4,5,5,6,6,7,7,8,8,9,9,10,10,11,11,12,12,13,13,14,14,15,15,16,16,17,17,18,18,19,19,20,20,21,21,22,22,23,23,24,24,25,25,26,26,27,27,28,28,29,29,30,30],"right_children":[2,4,6,8,10,12,14,16,18,20,22,24,26,28,30,32,34,36,38,40,42,44,46,48,50,52,54,56,58,60,62,-1,-1,-1,-1,-1,-1,-1,-1,-1,-1,-1,-1,-1,-1,-1,-1,-1,-1,-1,-1,-1,-1,-1,-1,-1,-1,-1,-1,-1,-1,-1,-1],"split_conditions":[1.1757455E0,7.52723E-1,1.8723007E-1,1.0265343E0,-2.6589385E-1,4.1184512E-1,-1.0865378E0,1.6526216E0,-1.3997084E0,-1.0224092E0,1.0719948E0,-2.1871635E-1,-1.5034164E0,9.296445E-1,-7.514467E-1,1.4452549E0,1.2185114E-1,2.038889E0,-1.869078E-1,-1.155272E0,-9.9679506E-1,1.3235687E0,-7.372136E-1,-2.065011E-1,-4.5883935E-2,-1.9358478E-1,-7.372136E-1,-1.5401731E-2,1.5552888E0,-7.9394054E-1,-5.0902075E-1,-4.4973347E-2,-2.8381652E-1,3.2525343E-1,1.3417149E-2,6.2303823E-1,-5.4267522E-2,1.4284389E-1,-1.22575186E-1,1.3511099E-1,-4.1440782E-1,1.8994518E-1,-3.9490234E-2,1.8876944E-1,-1.316543E-1,-4.602509E-1,7.313694E-2,-3.5825843E-1,2.2367474E-2,6.4259857E-1,6.853868E-2,2.3951821E-1,-4.7756192E-1,1.252477E-1,4.4629556E-1,9.767787E-2,4.7641775E-1,-2.4521816E-1,9.840436E-2,-3.1164345E-1,2.643554E-1,4.945123E-2,-2.7994928E-1],"split_indices":[12,2,6,9,3,5,3,6,3,6,6,0,1,1,13,6,2,15,12,9,13,1,0,7,0,2,0,13,1,3,2,0,0,0,0,0,0,0,0,0,0,0,0,0,0,0,0,0,0,0,0,0,0,0,0,0,0,0,0,0,0,0,0],"split_type":[0,0,0,0,0,0,0,0,0,0,0,0,0,0,0,0,0,0,0,0,0,0,0,0,0,0,0,0,0,0,0,0,0,0,0,0,0,0,0,0,0,0,0,0,0,0,0,0,0,0,0,0,0,0,0,0,0,0,0,0,0,0,0],"sum_hessian":[1.243E3,1.037E3,2.06E2,7.12E2,3.25E2,1.11E2,9.5E1,5.57E2,1.55E2,1.4E2,1.85E2,6E1,5.1E1,2.1E1,7.4E1,5.48E2,9E0,1.9E1,1.36E2,2.3E1,1.17E2,1.52E2,3.3E1,2.1E1,3.9E1,7E0,4.4E1,1.6E1,5E0,2.3E1,5.1E1,5.16E2,3.2E1,7E0,2E0,1.4E1,5E0,6.3E1,7.3E1,4E0,1.9E1,2.7E1,9E1,1.36E2,1.6E1,1E1,2.3E1,1.2E1,9E0,4E0,3.5E1,4E0,3E0,1E1,3.4E1,6E0,1E1,4E0,1E0,4E0,1.9E1,1.4E1,3.7E1],"tree_param":{"num_deleted":"0","num_feature":"20","num_nodes":"63","size_leaf_vector":"1"}},{"base_weights":[-6.9924675E-2,-1.2648499E-1,1.7954288E0,-1.0781053E0,-1.7156238E-2,2.9753864E0,-1.3713202E0,5.10756E-1,-2.090179E0,-1.3908528E-1,9.002126E-1,-1.3920651E-1,4.2281837E0,-4.0088E0,2.5954156E0,1.7043849E0,-3.1094193E0,1.0573533E0,-2.970266E0,-1.9976392E-1,1.6894128E0,5.7397115E-1,7.041368E-1,2.4636915E0,-4.0087518E-1,4.7328897E0,-2.680616E-1,-1.2283469E-2,-4.6359882E-1,5.042655E-2,3.8214272E-1,-1.0857942E-1,3.141236E-1,-5.9441155E-1,-5.9471976E-2,-3.178413E-1,2.9309875E-1,-4.1798553E-1,-7.374906E-2,-1.2857954E-2,-1.9272844E-1,-2.2418852E-1,2.8798518E-1,1.6227627E-1,-3.3144843E-2,3.9992705E-1,-4.049778E-2,4.8804504E-1,1.0384035E-1],"categories":[],"categories_nodes":[],"categories_segments":[],"categories_sizes":[],"default_left":[0,0,0,0,0,0,0,0,0,0,0,0,0,0,0,0,0,0,0,0,0,0,0,0,0,0,0,0,0,0,0,0,0,0,0,0,0,0,0,0,0,0,0,0,0,0,0,0,0],"id":27,"left_children":[1,3,5,7,9,11,13,15,17,19,21,23,25,27,29,31,33,35,37,39,41,-1,43,45,-1,47,-1,-1,-1,-1,-1,-1,-1,-1,-1,-1,-1,-1,-1,-1,-1,-1,-1,-1,-1,-1,-1,-1,-1],"loss_changes":[1.3622299E2,1.3023892E2,1.4607211E2,2.0850534E2,1.2584899E2,1.0984329E2,1.2548854E2,2.2567809E2,2.219787E2,1.1051161E2,1.2121439E2,1.0052461E2,8.2425354E1,1.6491165E1,1.0891853E1,1.597645E2,8.913425E1,1.5216885E2,1.643634E2,1.1805171E2,1.5621535E2,0E0,1.22306244E2,2.805003E1,0E0,5.2901E0,0E0,0E0,0E0,0E0,0E0,0E0,0E0,0E0,0E0,0E0,0E0,0E0,0E0,0E0,0E0,0E0,0E0,0E0,0E0,0E0,0E0,0E0,0E0],"parents":[2147483647,0,0,1,1,2,2,3,3,4,4,5,5,6,6,7,7,8,8,9,9,10,10,11,11,12,12,13,13,14,14,15,15,16,16,17,17,18,18,19,19,20,20,22,22,23,23,25,25],"right_children":[2,4,6,8,10,12,14,16,18,20,22,24,26,28,30,32,34,36,38,40,42,-1,44,46,-1,48,-1,-1,-1,-1,-1,-1,-1,-1,-1,-1,-1,-1,-1,-1,-1,-1,-1,-1,-1,-1,-1,-1,-1],"split_conditions":[1.5948421E0,-1.3611083E0,8.858125E-1,-2.3846285E-1,1.3550864E0,-4.78753E-1,4.7261333E-1,7.52723E-1,-8.3710563E-1,1.5912651E0,-1.2021271E0,-5.0902075E-1,1.5089447E0,-8.2445663E-1,-1.1790084E0,-5.443662E-1,-2.1871635E-1,-1.3722076E0,9.6850103E-1,1.4774823E0,-1.0567673E0,5.7397115E-1,1.19015455E-1,-4.8939857E-1,-4.0087518E-1,1.3467407E0,-2.680616E-1,-1.2283469E-2,-4.6359882E-1,5.042655E-2,3.8214272E-1,-1.0857942E-1,3.141236E-1,-5.9441155E-1,-5.9471976E-2,-3.178413E-1,2.9309875E-1,-4.1798553E-1,-7.374906E-2,-1.2857954E-2,-1.9272844E-1,-2.2418852E-1,2.8798518E-1,1.6227627E-1,-3.3144843E-2,3.9992705E-1,-4.049778E-2,4.8804504E-1,1.0384035E-1],"split_indices":[3,6,7,3,8,5,0,2,8,7,6,2,1,2,1,9,0,8,3,7,10,0,4,4,0,1,0,0,0,0,0,0,0,0,0,0,0,0,0,0,0,0,0,0,0,0,0,0,0],"split_type":[0,0,0,0,0,0,0,0,0,0,0,0,0,0,0,0,0,0,0,0,0,0,0,0,0,0,0,0,0,0,0,0,0,0,0,0,0,0,0,0,0,0,0,0,0,0,0,0,0],"sum_hessian":[1.288E3,1.251E3,3.7E1,1.28E2,1.123E3,2.7E1,1E1,5E1,7.8E1,9.92E2,1.31E2,8E0,1.9E1,6E0,4E0,3.8E1,1.2E1,1.7E1,6.1E1,9.61E2,3.1E1,4E0,1.27E2,5E0,3E0,1.8E1,1E0,1E0,5E0,2E0,2E0,1.3E1,2.5E1,5E0,7E0,5E0,1.2E1,3.9E1,2.2E1,9.24E2,3.7E1,7E0,2.4E1,6.7E1,6E1,3E0,2E0,1.7E1,1E0],"tree_param":{"num_deleted":"0","num_feature":"20","num_nodes":"49","size_leaf_vector":"1"}},{"base_weights":[7.379777E-2,-8.551697E-1,2.4840532E-1,1.8196881E0,-1.2522283E0,2.099361E0,7.1132645E-2,3.1752594E0,-2.3133285E0,-1.0640852E0,-6.3115287E-1,1.3696028E0,4.1099424E0,-1.0744606E0,2.4350256E-1,4.8839087E0,9.782194E-1,8.544028E-1,-4.9027276E-1,-1.7589056E0,1.5324482E0,4.7305517E0,7.197716E-1,5.4793763E0,-9.1158915E-1,-8.1563604E-1,-6.115013E0,3.3067524E0,1.4121988E-1,5.4987013E-1,1.4115614E-1,-1.4049892E-1,2.8011903E-1,-4.77259E-2,2.4246942E-1,-1.3747266E-1,-7.589864E-1,-3.427826E-1,3.3128294E-1,-2.6070893E-1,5.725025E-1,1.2156508E-1,-3.1375667E-1,5.9265023E-1,-1.2844458E-1,-3.2923517E-1,2.566624E-1,-3.8032123E-1,-2.9071284E-2,-2.4692059E-1,-7.3206156E-1,5.436797E-1,1.24026336E-1,-1.2222654E-2,7.759973E-2],"categories":[],"categories_nodes":[],"categories_segments":[],"categories_sizes":[],"default_left":[0,0,0,0,0,0,0,0,0,0,0,0,0,0,0,0,0,0,0,0,0,0,0,0,0,0,0,0,0,0,0,0,0,0,0,0,0,0,0,0,0,0,0,0,0,0,0,0,0,0,0,0,0,0,0],"id":28,"left_children":[1,3,5,7,9,11,13,15,17,19,-1,21,23,25,27,29,31,33,-1,35,37,39,41,43,45,47,49,51,53,-1,-1,-1,-1,-1,-1,-1,-1,-1,-1,-1,-1,-1,-1,-1,-1,-1,-1,-1,-1,-1,-1,-1,-1,-1,-1],"loss_changes":[2.0296837E2,2.1256958E2,3.453651E2,1.5301299E2,1.5795789E2,1.293569E2,1.9022372E2,7.030188E1,6.1606544E1,3.0578833E2,0E0,1.4729451E2,1.700347E2,1.5939436E2,2.617797E2,1.5720734E1,4.7380844E1,9.521595E0,0E0,2.8750366E2,3.2927826E2,9.519362E1,1.1666782E2,6.507355E1,5.8135025E1,1.886524E2,8.296265E0,1.1210321E2,1.3571826E2,0E0,0E0,0E0,0E0,0E0,0E0,0E0,0E0,0E0,0E0,0E0,0E0,0E0,0E0,0E0,0E0,0E0,0E0,0E0,0E0,0E0,0E0,0E0,0E0,0E0,0E0],"parents":[2147483647,0,0,1,1,2,2,3,3,4,4,5,5,6,6,7,7,8,8,9,9,11,11,12,12,13,13,14,14,15,15,16,16,17,17,19,19,20,20,21,21,22,22,23,23,24,24,25,25,26,26,27,27,28,28],"right_children":[2,4,6,8,10,12,14,16,18,20,-1,22,24,26,28,30,32,34,-1,36,38,40,42,44,46,48,50,52,54,-1,-1,-1,-1,-1,-1,-1,-1,-1,-1,-1,-1,-1,-1,-1,-1,-1,-1,-1,-1,-1,-1,-1,-1,-1,-1],"split_conditions":[-1.1823328E0,-1.2879529E0,-9.4067377E-1,-1.3376849E0,1.631937E0,9.7522366E-1,-1.3127227E0,7.52723E-1,-3.4253284E-1,9.7767484E-1,-6.3115287E-1,-1.291986E0,1.0681589E0,1.5457519E0,-1.2159516E0,1.3367754E0,-1.5448211E0,-3.2164395E-1,-4.9027276E-1,8.374758E-1,-9.655668E-1,-1.4413853E0,1.4851019E0,1.3930848E0,-1.1326643E0,-6.1270803E-1,3.2835633E-1,3.3666652E-1,7.647176E-1,5.4987013E-1,1.4115614E-1,-1.4049892E-1,2.8011903E-1,-4.77259E-2,2.4246942E-1,-1.3747266E-1,-7.589864E-1,-3.427826E-1,3.3128294E-1,-2.6070893E-1,5.725025E-1,1.2156508E-1,-3.1375667E-1,5.9265023E-1,-1.2844458E-1,-3.2923517E-1,2.566624E-1,-3.8032123E-1,-2.9071284E-2,-2.4692059E-1,-7.3206156E-1,5.436797E-1,1.24026336E-1,-1.2222654E-2,7.759973E-2],"split_indices":[8,4,8,8,13,6,6,2,13,13,0,6,2,7,6,0,8,1,0,13,12,10,4,1,1,8,9,8,9,0,0,0,0,0,0,0,0,0,0,0,0,0,0,0,0,0,0,0,0,0,0,0,0,0,0],"split_type":[0,0,0,0,0,0,0,0,0,0,0,0,0,0,0,0,0,0,0,0,0,0,0,0,0,0,0,0,0,0,0,0,0,0,0,0,0,0,0,0,0,0,0,0,0,0,0,0,0,0,0,0,0,0,0],"sum_hessian":[1.249E3,1.97E2,1.052E3,2.5E1,1.72E2,9.1E1,9.61E2,1.9E1,6E0,1.67E2,5E0,6.8E1,2.3E1,1.25E2,8.36E2,1E1,9E0,3E0,3E0,1.32E2,3.5E1,1E1,5.8E1,1.8E1,5E0,1.2E2,5E0,2.6E1,8.1E2,8E0,2E0,4E0,5E0,2E0,1E0,1.25E2,7E0,9E0,2.6E1,1E0,9E0,5.2E1,6E0,1.7E1,1E0,3E0,2E0,1.7E1,1.03E2,2E0,3E0,1.2E1,1.4E1,5.73E2,2.37E2],"tree_param":{"num_deleted":"0","num_feature":"20","num_nodes":"55","size_leaf_vector":"1"}},{"base_weights":[1.6291495E-2,6.799125E-1,-1.35133E-1,-1.4335022E0,9.727102E-1,-7.7096E-1,2.2550315E-1,-2.0003897E-1,-4.6463385E0,1.1510342E0,-3.0783107E0,-3.286604E-1,-1.6050099E0,1.535171E0,4.5032324E-3,7.458815E-1,-2.846807E0,-5.811749E-1,-7.6673794E-1,-3.1050375E-2,1.7116598E0,-3.7601554E0,-4.61236E-2,-2.97042E0,-5.471811E-2,-3.7033644E0,-5.494437E-1,5.7813793E-1,2.8366382E0,4.0976577E0,-7.677692E-2,2.1283452E-1,-2.997701E-1,1.352304E-1,-3.95709E-1,2.1989156E-2,-1.3699985E-1,2.7115664E-1,-9.080668E-2,1.3378552E-1,4.227607E-1,-4.2105633E-1,-5.288544E-2,-4.0321213E-1,3.0806905E-1,-6.8207555E-2,1.4479667E-1,-1.9588558E-1,-5.437666E-1,1.3863353E-1,-2.4727352E-1,1.2171379E-2,3.7557194E-1,3.979559E-1,4.2981695E-2,-3.9459914E-1,6.323579E-1,7.299699E-3,-2.11247E-1],"categories":[],"categories_nodes":[],"categories_segments":[],"categories_sizes":[],"default_left":[0,0,0,0,0,0,0,0,0,0,0,0,0,0,0,0,0,0,0,0,0,0,0,0,0,0,0,0,0,0,0,0,0,0,0,0,0,0,0,0,0,0,0,0,0,0,0,0,0,0,0,0,0,0,0,0,0,0,0],"id":29,"left_children":[1,3,5,7,9,11,13,15,17,19,21,23,25,27,29,31,33,-1,35,37,39,41,-1,43,45,47,49,51,53,55,57,-1,-1,-1,-1,-1,-1,-1,-1,-1,-1,-1,-1,-1,-1,-1,-1,-1,-1,-1,-1,-1,-1,-1,-1,-1,-1,-1,-1],"loss_changes":[1.2710932E2,1.4681306E2,2.363551E2,1.139951E2,1.5307884E2,1.3707217E2,1.904423E2,5.720329E1,3.1714523E1,1.3193185E2,1.432563E1,1.7714143E2,2.83694E2,1.1668704E2,1.8795302E2,9.436138E1,3.3324398E1,0E0,2.086835E0,1.5880807E2,1.2130789E2,7.9610367E0,0E0,1.6018451E2,2.1121431E2,1.1944513E2,3.273349E2,8.076108E1,1.0832172E2,2.2190257E2,1.6906532E2,0E0,0E0,0E0,0E0,0E0,0E0,0E0,0E0,0E0,0E0,0E0,0E0,0E0,0E0,0E0,0E0,0E0,0E0,0E0,0E0,0E0,0E0,0E0,0E0,0E0,0E0,0E0,0E0],"parents":[2147483647,0,0,1,1,2,2,3,3,4,4,5,5,6,6,7,7,8,8,9,9,10,10,11,11,12,12,13,13,14,14,15,15,16,16,18,18,19,19,20,20,21,21,23,23,24,24,25,25,26,26,27,27,28,28,29,29,30,30],"right_children":[2,4,6,8,10,12,14,16,18,20,22,24,26,28,30,32,34,-1,36,38,40,42,-1,44,46,48,50,52,54,56,58,-1,-1,-1,-1,-1,-1,-1,-1,-1,-1,-1,-1,-1,-1,-1,-1,-1,-1,-1,-1,-1,-1,-1,-1,-1,-1,-1,-1],"split_conditions":[-1.0613928E0,-1.3298165E0,-1.4443046E-2,1.3992705E0,1.6824403E0,5.438028E-1,-1.2036504E0,6.92382E-1,-1.2876985E0,-7.6665694E-1,7.609447E-1,-1.1398926E0,9.0629125E-1,1.2430805E0,1.07020335E-2,1.0681589E0,-5.0902075E-1,-5.811749E-1,1.2694848E-1,-1.0399762E0,1.1381927E0,1.3003967E0,-4.61236E-2,1.016697E0,7.647176E-1,-2.828012E-1,-5.767785E-1,1.288351E0,3.5034433E-1,-6.170342E-1,1.4452549E0,2.1283452E-1,-2.997701E-1,1.352304E-1,-3.95709E-1,2.1989156E-2,-1.3699985E-1,2.7115664E-1,-9.080668E-2,1.3378552E-1,4.227607E-1,-4.2105633E-1,-5.288544E-2,-4.0321213E-1,3.0806905E-1,-6.8207555E-2,1.4479667E-1,-1.9588558E-1,-5.437666E-1,1.3863353E-1,-2.4727352E-1,1.2171379E-2,3.7557194E-1,3.979559E-1,4.2981695E-2,-3.9459914E-1,6.323579E-1,7.299699E-3,-2.11247E-1],"split_indices":[3,9,3,19,0,8,4,7,3,6,6,2,8,11,3,2,2,0,0,1,1,1,0,6,9,6,3,9,1,4,6,0,0,0,0,0,0,0,0,0,0,0,0,0,0,0,0,0,0,0,0,0,0,0,0,0,0,0,0],"split_type":[0,0,0,0,0,0,0,0,0,0,0,0,0,0,0,0,0,0,0,0,0,0,0,0,0,0,0,0,0,0,0,0,0,0,0,0,0,0,0,0,0,0,0,0,0,0,0,0,0,0,0,0,0,0,0,0,0,0,0],"sum_hessian":[1.263E3,2.34E2,1.029E3,2.8E1,2.06E2,3.72E2,6.57E2,2.1E1,7E0,1.98E2,8E0,2.44E2,1.28E2,9.4E1,5.63E2,1.6E1,5E0,5E0,2E0,6.4E1,1.34E2,6E0,2E0,2.2E1,2.22E2,4.2E1,8.6E1,5.5E1,3.9E1,1E1,5.53E2,1.2E1,4E0,1E0,4E0,1E0,1E0,1.5E1,4.9E1,1.18E2,1.6E1,5E0,1E0,1.9E1,3E0,1.57E2,6.5E1,2.2E1,2E1,4.3E1,4.3E1,4.9E1,6E0,2.6E1,1.3E1,2E0,8E0,5.16E2,3.7E1],"tree_param":{"num_deleted":"0","num_feature":"20","num_nodes":"59","size_leaf_vector":"1"}},{"base_weights":[1.644337E-2,-6.2039115E-2,1.5690978E0,3.591094E-3,-2.1374698E0,5.000328E0,7.982619E-1,-6.166019E-2,2.0051212E0,5.9337545E-2,-4.4596186E0,5.534557E-1,-1.7098142E-2,-2.4086076E-1,3.0863965E0,-2.046292E-1,6.642181E-1,3.8877006E0,-4.3836617E-1,1.8579828E0,-2.8708782E0,-5.673387E0,1.206918E0,-2.291319E0,2.4654193E0,3.5352628E0,-1.823299E-1,2.3874553E-2,-5.496465E-2,-9.339889E-3,2.1217227E-1,6.1407775E-1,7.952382E-2,5.667509E-1,-1.1742027E-1,3.2782087E-1,-2.1570776E-1,-3.1562015E-1,-4.3680765E-2,-1.14880405E-1,-6.2811077E-1,-1.5424895E-1,2.6375505E-1,1.9014555E-1,-4.0951926E-1,-8.008677E-2,3.6209205E-1,3.9684188E-1,-1.2644616E-1],"categories":[],"categories_nodes":[],"categories_segments":[],"categories_sizes":[],"default_left":[0,0,0,0,0,0,0,0,0,0,0,0,0,0,0,0,0,0,0,0,0,0,0,0,0,0,0,0,0,0,0,0,0,0,0,0,0,0,0,0,0,0,0,0,0,0,0,0,0],"id":30,"left_children":[1,3,5,7,9,11,13,15,17,19,21,-1,-1,23,25,27,29,31,33,35,37,39,41,43,45,47,-1,-1,-1,-1,-1,-1,-1,-1,-1,-1,-1,-1,-1,-1,-1,-1,-1,-1,-1,-1,-1,-1,-1],"loss_changes":[1.5448914E2,1.644143E2,1.5734828E2,1.5305905E2,1.8901321E2,3.1335571E1,1.2200366E2,1.1792406E2,1.719064E2,1.1074242E2,1.3064886E2,0E0,0E0,2.0541714E2,4.170659E1,1.4530162E2,2.0668921E2,1.414353E2,8.303454E1,8.120114E1,4.1773224E0,3.402939E1,1.9801958E1,1.6661476E2,6.328705E1,3.620337E1,0E0,0E0,0E0,0E0,0E0,0E0,0E0,0E0,0E0,0E0,0E0,0E0,0E0,0E0,0E0,0E0,0E0,0E0,0E0,0E0,0E0,0E0,0E0],"parents":[2147483647,0,0,1,1,2,2,3,3,4,4,5,5,6,6,7,7,8,8,9,9,10,10,13,13,14,14,15,15,16,16,17,17,18,18,19,19,20,20,21,21,22,22,23,23,24,24,25,25],"right_children":[2,4,6,8,10,12,14,16,18,20,22,-1,-1,24,26,28,30,32,34,36,38,40,42,44,46,48,-1,-1,-1,-1,-1,-1,-1,-1,-1,-1,-1,-1,-1,-1,-1,-1,-1,-1,-1,-1,-1,-1,-1],"split_conditions":[1.53998E0,1.4416857E0,-1.0917326E0,1.3388195E0,-1.3626789E-1,1.1061907E0,9.012873E-1,1.1475127E0,4.8170418E-1,3.9708644E-1,1.0686766E0,5.534557E-1,-1.7098142E-2,8.519898E-1,1.3835949E0,-2.4132787E-1,4.4930986E-1,1.3822519E0,-1.5008949E0,6.15788E-1,1.3367754E0,-1.1398926E0,1.48969E0,-9.1690063E-1,-5.643812E-1,8.620684E-1,-1.823299E-1,2.3874553E-2,-5.496465E-2,-9.339889E-3,2.1217227E-1,6.1407775E-1,7.952382E-2,5.667509E-1,-1.1742027E-1,3.2782087E-1,-2.1570776E-1,-3.1562015E-1,-4.3680765E-2,-1.14880405E-1,-6.2811077E-1,-1.5424895E-1,2.6375505E-1,1.9014555E-1,-4.0951926E-1,-8.008677E-2,3.6209205E-1,3.9684188E-1,-1.2644616E-1],"split_indices":[3,3,10,3,1,13,10,7,10,12,1,0,0,9,2,6,4,3,12,6,0,2,3,12,0,4,0,0,0,0,0,0,0,0,0,0,0,0,0,0,0,0,0,0,0,0,0,0,0],"split_type":[0,0,0,0,0,0,0,0,0,0,0,0,0,0,0,0,0,0,0,0,0,0,0,0,0,0,0,0,0,0,0,0,0,0,0,0,0,0,0,0,0,0,0,0,0,0,0,0,0],"sum_hessian":[1.266E3,1.206E3,6E1,1.17E3,3.6E1,1E1,5E1,1.134E3,3.6E1,1.9E1,1.7E1,9E0,1E0,3.5E1,1.5E1,9.48E2,1.86E2,2E1,1.6E1,1.2E1,7E0,1.4E1,3E0,2E1,1.5E1,1.4E1,1E0,4.15E2,5.33E2,1.23E2,6.3E1,1.1E1,9E0,1E0,1.5E1,9E0,3E0,6E0,1E0,2E0,1.2E1,1E0,2E0,6E0,1.4E1,4E0,1.1E1,1.3E1,1E0],"tree_param":{"num_deleted":"0","num_feature":"20","num_nodes":"49","size_leaf_vector":"1"}},{"base_weights":[-4.3424588E-2,7.709916E-1,-1.4411692E-1,-1.0577168E-1,3.2382662E0,-8.551892E-1,8.729348E-2,-5.6640565E-1,1.7043816E-1,-4.036466E-1,4.1015005E0,8.5737586E-1,-1.2403342E0,-2.3308906E-1,6.3783354E-1,2.193684E0,-7.1535146E-1,2.4611981E-1,-1.7687945E0,2.2293074E-1,4.8682976E0,-2.8232749E0,1.492661E0,-3.5830083E-1,-2.010984E0,-1.0132446E0,1.053854E-1,1.2012997E0,-2.8481662E-1,4.0837058E-1,-9.4586E-3,2.1792434E-1,-1.2823479E-1,-2.0080943E-1,-2.8614808E-2,-1.2925726E-1,1.3038257E-1,5.420999E-1,6.1136533E-2,-4.0601334E-1,2.9173675E-1,2.203782E-1,-2.6825377E-1,3.6425897E-1,-8.963558E-2,1.711537E-1,-2.2872269E-1,2.57986E-1,-1.3375226E-1,-2.3743558E-1,2.4934433E-2,1.027115E-1,6.5749943E-1,-1.9878377E-1,6.7951344E-2],"categories":[],"categories_nodes":[],"categories_segments":[],"categories_sizes":[],"default_left":[0,0,0,0,0,0,0,0,0,0,0,0,0,0,0,0,0,0,0,0,0,0,0,0,0,0,0,0,0,0,0,0,0,0,0,0,0,0,0,0,0,0,0,0,0,0,0,0,0,0,0,0,0,0,0],"id":31,"left_children":[1,3,5,7,9,11,13,-1,15,17,19,21,23,25,27,29,31,-1,33,35,37,39,41,43,45,47,49,51,53,-1,-1,-1,-1,-1,-1,-1,-1,-1,-1,-1,-1,-1,-1,-1,-1,-1,-1,-1,-1,-1,-1,-1,-1,-1,-1],"loss_changes":[1.0507812E2,3.0535596E2,1.8766112E2,1.6216693E2,1.1797708E2,1.8574748E2,1.520148E2,0E0,1.8257846E2,3.564085E1,8.813696E1,1.2580385E2,1.5493964E2,1.4402098E2,1.6514476E2,1.3445755E2,1.193215E2,0E0,1.5541687E0,1.1513887E1,5.5506042E1,6.86478E1,1.3951999E2,2.3575653E2,1.2936981E2,1.9570267E2,1.3660176E2,1.7764178E2,2.0006598E2,0E0,0E0,0E0,0E0,0E0,0E0,0E0,0E0,0E0,0E0,0E0,0E0,0E0,0E0,0E0,0E0,0E0,0E0,0E0,0E0,0E0,0E0,0E0,0E0,0E0,0E0],"parents":[2147483647,0,0,1,1,2,2,3,3,4,4,5,5,6,6,8,8,9,9,10,10,11,11,12,12,13,13,14,14,15,15,16,16,18,18,19,19,20,20,21,21,22,22,23,23,24,24,25,25,26,26,27,27,28,28],"right_children":[2,4,6,8,10,12,14,-1,16,18,20,22,24,26,28,30,32,-1,34,36,38,40,42,44,46,48,50,52,54,-1,-1,-1,-1,-1,-1,-1,-1,-1,-1,-1,-1,-1,-1,-1,-1,-1,-1,-1,-1,-1,-1,-1,-1,-1,-1],"split_conditions":[-1.3589759E0,-1.4641252E0,-4.78753E-1,-1.5377584E0,-7.372136E-1,-1.0828785E0,4.7261333E-1,-5.6640565E-1,